-5.088621883847056493e-01,1.941632914590520065e-02,-7.518118225995118475e-02,6.462867358122002283e-03,1.042699769817625466e-01,8.807839689052474400e-03,-6.761171204015943570e-02,9.999875470857493009e-02,-5.354485932303120616e-02,-2.686118115845666926e-02,-1.467115217263091111e-02,9.104890159892779777e-02,4.341896974017531857e-02,-5.962753102790780552e-03,6.736848888573855609e-02,-9.758579649787332833e-02,-8.653218447332104712e-02,-1.987196906013025469e-02,8.198630250839143707e-02,-2.437979173292321305e-02,-7.137231279542630320e-03,-7.217900781798815280e-02,-8.454958855150846234e-03,3.822309276335943834e-02,6.616145140175361261e-03,-8.970444389552800768e-02,-1.076391842150070388e-01,-2.804438501466693066e-03,9.989961538354050208e-02,4.567711025271807557e-02,-2.036906046097879119e-02,-8.382995514814256532e-02,-8.035454979092265804e-02,-3.975109578302579716e-02,-1.925947794120851445e-02,-6.876608705280244649e-02,6.496827813378845684e-02,-5.358370253295773739e-02,-1.607974647921939573e-02,7.600966201771456763e-04,-5.402869640503382004e-02,-4.717684152834631002e-03,6.748345430560692346e-03,-8.067836663731023372e-03,-7.914758292796776618e-02,1.006177939106154967e-01,6.947820092666566472e-02,1.832628355159990688e-02,1.174849341486452203e-01,-3.100866905862013218e-02,6.784517571552685367e-02,-3.375366301173494954e-02,-3.929611460536722861e-02,1.117441384305412205e-01,1.908044398248379819e-02,2.006350994013307576e-02,-3.150749926665390166e-02,1.029346257125527547e-01,5.790021966500583789e-02,6.107876112517857808e-02,-1.890001602829391794e-02,6.643108224866901834e-02,-5.109272944680872536e-02,-7.583642759970032898e-02,-4.429210577506418473e-02,-3.858305814508216497e-02,1.395125532616347218e-02,1.004495557583553605e-01,1.307734822974112310e-01,-4.133370270270012720e-02,9.032171273251317356e-02,3.151308712632791553e-02,8.764884669405356710e-02,-9.246496729364117595e-02,1.861737364776857098e-02,6.315373346718203273e-02,4.533581802607906941e-02,1.089998952945048782e-01,-1.413534532413395113e-02,1.963021759987694168e-02,2.436274127748039309e-02,-6.116411777579789516e-02,-1.919444644937865884e-03,-4.156060451631463939e-04,-1.143871831858888355e-01,-8.062721195783158212e-02,7.758860088180773162e-02,-5.683575776526318679e-03,1.413969205249699379e-01,1.502091248391668188e-01,6.639935106558922384e-02,-5.614071701898375177e-02,-1.586131127944069921e-02,-6.932962285275333369e-02,5.697636645303053894e-03,2.095131587063935735e-02,-2.545913650378967344e-02,1.688322441824721409e-01,6.586077552444760674e-02,-4.669592920456468177e-02,5.943119231145747167e-02,-4.109044699590133631e-02,-1.833101361892484210e-02,-7.115597364551788651e-02,-7.214931425588456959e-02,-9.523249351289647668e-02,-1.683848909022424636e-02,1.755000669982601513e-01,8.475446971602518254e-02,2.736833499235239997e-01,9.726558591184392144e-02,-1.728440586761536280e-01,-2.497481378795987361e-01,-1.598675942319075782e-01,-1.755018923886018101e-01,4.685631749688128761e-02,5.337025958273746568e-02,4.484466034683481928e-02,1.831392299414824620e-01,2.153049964008857953e-01,-7.198643000845477563e-03,9.894741980637726531e-02,5.539951812259316655e-03,-1.043951816469362581e-01,-1.512970486620698711e-02,-6.574216160045216750e-02,-2.519547677673042094e-02,4.719554589499323771e-02,6.584561919530208807e-02,9.920919480417890457e-02,3.999776901555938263e-02,-2.138085037470530136e-01,-3.829603614346228646e-01,-2.327468537872374732e-01,-2.628381277993386278e-01,-6.315091228538629968e-03,1.238753817328655388e-01,3.219090747320361712e-01,3.350297949650226648e-01,2.172864632536513352e-01,-5.400916237954644927e-02,-2.649844690046565185e-02,-5.593560024344629289e-02,-2.363923283054135405e-02,-1.987300951054419562e-01,9.592525538665661738e-03,1.898058998694933108e-01,1.842332255294187038e-01,8.824020787114761344e-02,4.404274730964340828e-02,-1.241554023338368035e-01,-2.786809055968637039e-01,-3.229224415906791767e-01,-2.168955041914768025e-02,-2.865264438267641212e-01,-3.330972648986404439e-01,-2.867408162348479388e-03,3.597262041931674759e-01,3.066638721154575919e-01,2.393070889306573301e-01,-2.837506065670856656e-02,3.357142345447102633e-02,3.086363235733251970e-02,-4.402977878059520511e-02,-4.817217312387676864e-02,6.308559007283795483e-02,2.312375832076854210e-01,3.645784565789954024e-01,6.927374831669004529e-02,2.169857435506688803e-01,4.396718384368777238e-02,-2.775667997474098314e-01,-2.747592255194450939e-01,-2.235992034133066630e-01,-4.305609955688051160e-01,-4.163021610434576303e-01,-1.223072235618988673e-01,4.124715597644172393e-01,3.180251010703845083e-01,2.510843460292563889e-01,-2.286973012278113032e-02,-6.470980234014132165e-03,3.621413100240715444e-02,2.214890262360769569e-04,-9.464673703132327198e-02,2.720392647747549297e-01,6.632398590522643467e-01,2.855820389264994708e-01,2.662595231433429466e-01,1.110560282694606771e-01,-8.591090210397592242e-02,-2.798081878864054350e-01,-6.403074177169758574e-01,-5.367426815064939571e-01,-4.665034356892289735e-01,-4.574299537427321538e-01,-2.694280437035292269e-02,4.017821367319709958e-01,3.443711284603959144e-01,1.059390734616397350e-01,8.811495247122043406e-02,-6.208947458156157534e-02,-9.689018923485540058e-02,-5.378782553867897387e-02,-1.381363231576511197e-01,3.961990776741620146e-01,9.766956889783218188e-01,4.133446269927205652e-01,1.192499512828229941e-01,-9.723298175404201937e-02,-5.802704115601824142e-02,-4.126375977089690728e-01,-5.934650189496307737e-01,-5.642124696069690248e-01,-4.758321607148176535e-01,-4.384698961221430435e-01,-2.610534134522971700e-02,1.676046012824329579e-01,1.932133136435163490e-01,2.245780245508844641e-01,1.295969207265282308e-01,8.429346642731792849e-02,3.654864885726251400e-02,-4.173925107130558448e-02,-2.249345373948676563e-01,4.034463058619366937e-01,8.677764820263297318e-01,4.367935598390874086e-01,1.966219409636725535e-02,1.034642067178870445e-01,3.903044228200816534e-02,-1.092167410588085891e-01,-1.851431427539495245e-01,-1.116205388470852683e-01,-2.661543828595671068e-01,-2.980228369342763362e-01,-2.021179364428480479e-02,7.980999511300418403e-02,4.786614704937004056e-02,2.440849044762904430e-01,3.380668708715741516e-02,5.121449987254411695e-02,9.489837810916961283e-03,-7.600414298832422477e-02,-2.404358734904559203e-01,1.999568337001499108e-01,7.029938900320892303e-01,2.591643613147155967e-01,2.979725375173803981e-01,2.606223439835869127e-01,7.171442983042480845e-02,-7.155555659844517642e-03,-1.324834945368061068e-01,-2.889263849343443394e-02,6.233732198616383918e-02,-8.380009920089145914e-02,-1.790076422848607962e-01,-1.317135777725307044e-01,1.568522411601455391e-01,3.412598929923929547e-01,3.064880386796564257e-02,-7.691541782873032029e-02,-6.994057222950210428e-02,-3.447549867818069241e-02,-1.320702267110023254e-01,6.782263903641555514e-02,3.602393492606624226e-01,2.753058904141834073e-01,4.244883147678504276e-01,3.957750677430825759e-01,1.729242885389436490e-01,-1.130764121814532425e-01,-5.600496954138830391e-02,1.414974064545781174e-01,7.366943262734826359e-02,-1.049831759180831214e-01,-5.971964737187383798e-02,4.541423488699501687e-02,4.558089216649881259e-02,1.308056305884044701e-01,6.007440551673819823e-02,4.043016340024423866e-02,-1.470551498157326650e-02,-2.255840367694123688e-02,-2.416088577617759303e-01,-2.781714137265385578e-02,2.298090236616316673e-01,1.798719567978404321e-01,3.550942398422390345e-01,4.188474478678882451e-01,5.204562845266562376e-02,-2.118188307973141449e-01,-4.148515062152469124e-03,-1.578282893251441998e-01,1.988512601816030609e-02,-4.360025594807828697e-02,-1.315246418655376948e-01,-1.312406421968780913e-02,1.726668485676207399e-01,1.494733313356532423e-01,-5.223870896622452749e-03,4.952219374289651421e-02,-1.040657233040901131e-01,3.685829896483353713e-02,-1.701272842652871709e-01,-1.119282981156485002e-01,-1.472161499645271709e-01,8.321048062744890172e-02,3.853952947713387700e-01,2.608880863500929181e-01,6.858976099581833019e-02,-1.919644177250470068e-02,-4.135530312919050155e-02,-8.726815387514540168e-02,-6.822040909415762189e-02,-1.597663915816875113e-01,-2.613213607352210185e-02,-6.096158565923986451e-03,8.499257609671211078e-02,1.862511005749360390e-02,-3.344941729261481644e-02,6.368571434305971349e-03,4.258162419992080061e-02,-7.762238013290048699e-02,-5.516062073971010615e-02,-1.445314727922480391e-01,-9.135228868774199207e-02,1.708812030324283193e-01,2.539111418200737935e-01,1.040704976545809984e-01,9.129780411494371750e-02,2.330857124770032915e-02,-5.371077691599200621e-02,-2.139983988171345330e-01,-2.248946802297399072e-01,-1.634193622071505314e-01,-1.440099001446216442e-01,-5.497644322699998115e-02,3.233419821161093166e-02,9.293520993921833284e-03,6.338355119653205083e-02,-2.827080796069072338e-02,-6.043081720968116605e-02,4.083569592555721939e-02,-7.670821684963376186e-02,-1.551250670162982459e-01,2.731650821254057171e-02,-9.133191202962893593e-03,9.056564535732324062e-02,-4.507344858251722446e-04,-8.251545203244799176e-02,-5.334175142127170477e-02,-8.199263708820815622e-02,-2.002933523977867281e-01,-7.232582663102728182e-02,2.235886949962833520e-02,-3.204609400026767890e-02,1.072252615370264568e-02,1.071789240359076051e-01,4.315763017684237993e-03,-5.199293894828155987e-02,1.012039063753897711e-01,5.082564270676444285e-02,-1.096410317752780639e-01,6.275048600831020784e-02,-6.098669434544885110e-02,3.628292748294850018e-02,-1.280946486713362142e-01,3.594844092139960062e-02,-1.065410699378941811e-01,4.457516891860614089e-02,1.740973073218703843e-02,-1.128688853207915066e-01,-1.249916885431785057e-01,6.697834424097523498e-02,1.999342059301673080e-02,6.276605571851452681e-03,-5.098987585288683455e-02,-1.921351082277297090e-02,4.115766350523498290e-02,-4.086238213047628520e-02,7.606041454261823487e-02,7.939335478816651748e-02,-2.183643831580194677e-02,-7.594831216198698505e-03,9.112552421681555104e-02,-3.898062148778418806e-02,-7.786252734485138438e-02,-6.132923197996049958e-02,-5.901794909295556002e-02,-9.743667848512901561e-03,2.677171216308976264e-03,8.988981310723127838e-02,6.372719752363682766e-02,1.036178359988725595e-01,9.599464263316914714e-02,-2.936941096110588442e-02,7.354313793316243075e-02,1.621684780783342814e-02,-1.727664770766765973e-02,5.146403475057641924e-02
4.229461135705607222e-01,5.421422733978142200e-02,1.057947731069070474e-01,-3.215462184292595949e-02,9.523282366077621963e-02,4.590317925346040079e-02,-3.699601084939337786e-02,4.496443715171447725e-02,-7.090381700376162388e-02,-7.632682918705148423e-02,-7.484309304774586398e-03,9.679062053779349806e-02,1.182218579894635940e-02,-9.727068156652982078e-02,-6.371363694904616515e-02,-9.994051956735064413e-02,5.150680833479400617e-02,-1.415816237964210439e-02,-2.769638172288704098e-02,1.073902651181689594e-01,-3.417045862822106254e-04,6.116233326473510812e-02,4.582041614409079061e-02,-6.087257549357949493e-02,-3.471967781014369259e-02,-7.041558173599603287e-02,-7.974259504551034494e-02,7.500713354971710878e-02,-1.018722593783944197e-01,4.203150136038107804e-02,-7.517689572864857950e-02,-5.516330504981246247e-02,-6.068431473948381755e-02,4.316483546104700822e-03,-7.730025299066384248e-02,3.011498932020124572e-02,-4.585561616448914635e-02,7.308033130267027611e-02,4.342670837380025600e-02,-5.219581149865602093e-02,4.989055190161623132e-02,-7.130470771518680750e-02,6.563849645989133785e-02,-3.645551690390937821e-02,1.106798529659491215e-01,8.299380125760293103e-02,4.357489976269295073e-02,-3.461556844373550601e-02,-4.809778611345860017e-02,-6.677042753373653439e-02,-7.812125787584318914e-02,-5.501467978155934885e-02,2.460635023213362735e-02,1.598404403351237277e-02,1.059460720229158694e-02,1.727665018701168148e-02,7.575962630164213840e-02,1.225583482664905216e-01,-1.240179259535991417e-02,-8.683366392452405991e-02,1.015236876360231244e-01,9.244186834024403776e-02,-5.983184550725894474e-02,4.242265248517003429e-02,-7.588266212669242394e-02,7.002441707497063239e-02,-5.879887333184361659e-02,2.064511850306131879e-02,-1.449065772580342137e-01,-1.509430435563938744e-01,-7.325653560313323542e-02,-1.013580017011734280e-01,3.060640252405747233e-02,1.399479216108341639e-01,1.307849384340293020e-01,2.029223097291704969e-01,1.295304572775569096e-01,2.851594259973959725e-02,1.140428574403853229e-01,-6.766032158204365876e-02,-1.094747704606988531e-01,2.344966148525797628e-02,-7.690099221603143541e-03,-2.605216907112493235e-02,-3.380216513248203176e-03,-1.887765374504033269e-02,-6.368756720144713550e-03,-1.556379810622386117e-01,-1.608385919705183631e-01,-3.296511691358256033e-03,-2.317593968769324567e-02,1.047036684826702507e-01,-1.104339528732742187e-01,1.962343154246841415e-01,4.221568157823985534e-01,4.344796892351494022e-01,5.711622308259727693e-02,4.903672978427984011e-03,-6.464523387306678193e-02,9.334521339662567307e-02,4.963321005970757621e-02,-5.547992084241631927e-02,1.205310545584962860e-02,-1.047055626005988782e-01,2.024054188767013818e-01,1.930444107580003843e-01,-1.445803545424719228e-01,-2.367678921900166489e-01,-1.704869737752491565e-01,-3.084120677998650195e-02,2.385079511112810358e-01,1.347532023937798584e-01,8.872106387501704772e-02,-6.311997031315036422e-02,5.230147349412331281e-02,3.557461167847392192e-01,1.675276955497012332e-01,1.113277071986491784e-02,9.787228328512892483e-02,4.758472338735297846e-02,-1.136907248891957656e-01,6.117291723429258560e-02,-8.290962303798246613e-02,5.777459386479603942e-02,2.691862550427084333e-01,1.637098299269381108e-01,-9.069791223669940866e-03,-2.880183624566178269e-01,-2.330861937442931797e-01,-6.890213476429347950e-02,2.779118903269101049e-01,3.099109291521764953e-01,1.424762393934619620e-01,-3.387545896655332900e-01,-5.305200909365811457e-01,2.713608149858214372e-02,6.461782689698380988e-02,-8.926268703718638620e-02,-1.011253001235431770e-01,2.328961715835637172e-02,-6.011247671937727799e-02,2.948890867116214440e-02,-1.040287103867811036e-01,-3.033674964440558064e-02,1.352300599877594434e-01,2.430321179977444623e-01,-1.771884485930010911e-01,-2.298938616033630866e-01,-1.774667494860285577e-01,1.324257914308144546e-01,3.000474296668153573e-01,3.229403863234207028e-01,1.476647223324802916e-01,-5.129532524658436676e-01,-6.694441038654451726e-01,-4.189737014559442030e-01,3.995128462316489479e-03,-2.213829779918967400e-01,-1.594164331322874550e-01,-5.184773729542287157e-02,-8.469596148804102442e-02,-4.957406051486819721e-04,-1.083220266867714401e-02,1.316561719609178789e-02,3.000955119549305050e-01,1.994639581609249090e-01,2.169062863466710272e-03,-1.342056995782253404e-01,-1.613515578147361462e-01,-9.548768670103978395e-02,2.220647506639967794e-01,2.768437298082257469e-01,3.447792519252129706e-02,-2.356108068230307606e-01,-4.615680428535288149e-01,-3.374581730484255693e-01,-2.921122323219195183e-01,-2.885341643894257513e-01,-7.514459602125760085e-02,2.617968857731347090e-02,2.689276086727621171e-03,3.265588458524242010e-02,-1.413561647010580860e-02,6.096572310631362401e-02,2.075812927833574906e-01,-1.702146231262536766e-02,1.344689663507273557e-02,-7.752579813590705637e-02,-3.524204395985489624e-01,-2.202793039211329018e-01,2.594777140832920104e-01,3.433698679832101197e-01,2.671576937392408091e-01,5.545752244369302891e-02,-2.936767601328203400e-02,-1.849176397388407889e-01,-3.505889837341515380e-01,-2.979363184045660806e-01,-2.401827480051476477e-02,4.453851019027598931e-03,-1.331353428684831364e-01,-1.054077668239277316e-01,-7.394734997786041319e-02,-1.203831523931284259e-01,-9.610249047663475819e-02,-3.620155011215833024e-02,2.063687626212670212e-01,-2.610899312475507550e-01,-1.758699614667093569e-01,1.645217931576282433e-01,2.371512207436907993e-01,1.579508810756776183e-01,7.736027511879640939e-02,1.712181394278665947e-01,1.965646003655806551e-01,-4.974604404853551903e-02,-3.398397563746832772e-01,-2.653159818355532162e-01,-1.725931101198743267e-01,-1.361225977142208332e-01,-4.209179836995131929e-02,6.348065925878612625e-02,-1.870970704938353796e-02,-1.519787535407034484e-01,-1.418577429632577047e-01,-1.311320380327003210e-01,1.252434246359277470e-01,-2.232375420759904767e-03,-4.730157904676356162e-02,1.664716013778607118e-01,-6.056157599388859586e-02,8.557041147215906085e-02,9.696278783722996064e-02,2.907098658414404846e-01,1.481838684799736405e-01,-3.419154835479690929e-02,-2.715534832787128150e-01,-5.846941500780945822e-02,-3.255679871316045082e-01,-1.900389099353500845e-03,-7.091079332507711774e-02,7.266740947534569561e-02,-7.493936417926388982e-02,-9.869577475279438239e-02,-1.437187494948836408e-01,5.282580883458281445e-02,2.328724415161279593e-01,1.125236231441591739e-01,-1.141659344403243570e-01,-6.780565163868809697e-02,2.657637631755496166e-01,1.940735100078674613e-01,2.710438086850246453e-01,1.937556238604414283e-01,-3.996081918082821510e-02,-3.686031369154642995e-02,-1.016967743879212613e-02,6.888098341149245796e-02,-1.761920614440275756e-01,-4.308172742936837440e-02,2.939310758594595660e-02,-2.953063281890292574e-02,9.620450865375261909e-03,-1.291981074397737239e-01,-9.518759896466330583e-02,7.968365570351544636e-02,2.152722300330825456e-01,7.360959295310519346e-02,-2.353026925941572034e-01,-3.363403985033711074e-01,2.356696075873812302e-01,2.352791835683516464e-01,6.393674942491267554e-02,1.131501665479434093e-01,7.686904349142030524e-02,1.657163542736673767e-01,2.057141455913359118e-01,2.636248992404477409e-01,-2.331218397872849429e-02,1.170308514175581877e-01,-1.112820068274011226e-01,1.130067700683878573e-01,-1.567029800445052853e-03,-8.090703068171116452e-02,-7.699522333369160365e-02,2.020467610734646979e-01,2.815735670842194893e-01,9.408201213354035197e-02,-2.298122749095069806e-01,-3.924672337120619359e-01,-2.345494642099689442e-01,5.070219946333741345e-02,-3.248969453046338801e-02,-1.187299257436354588e-01,2.021429584929937129e-01,2.990583269301576586e-01,3.676655679750537309e-01,2.965358239441250876e-01,1.364787533777591100e-01,1.302868402865666186e-01,-2.038150951123719051e-02,6.966492415439048957e-02,-1.126726988122121048e-01,6.343405025725486202e-02,-2.721017141351462706e-02,6.942302982533743450e-02,1.611335653362897802e-01,-1.727422737017669449e-02,-4.557573592626126269e-01,-4.412110503646262671e-01,-3.941541160037192459e-01,-3.525759307518228081e-01,-2.423582007069253474e-01,1.045867593497236403e-01,1.325472081554581183e-01,2.064234502914633618e-01,1.853890978456471383e-01,4.117691546046108042e-02,-1.392348289383233545e-02,8.015927249266745214e-02,2.810440847257928559e-02,-1.136267268879355164e-04,-1.058465635029456481e-01,-8.349873502193222441e-02,1.996993951738018913e-01,1.895187433251805109e-01,5.989986175106729732e-02,-4.998988776587667826e-02,-2.987205494301968245e-01,-3.631981230374171088e-01,-2.956918127438427080e-01,-2.522906712592367651e-01,-7.085450057845396610e-02,-2.240026832057565205e-03,2.003203732934474290e-01,1.633059696663479998e-01,1.773680414902853719e-01,5.423399764519704763e-02,-8.406676148062819137e-05,5.225270901032337545e-02,-1.154923079189200119e-01,-4.487205788090139341e-02,8.716527723862703414e-02,-9.715258253512738806e-02,1.529516809677323452e-01,2.161045308305758195e-01,2.014629782747677234e-01,1.298696043281019896e-01,6.385407737933912475e-02,-1.812228657422012557e-01,-8.765180727192614651e-02,-1.219627112214301951e-01,-8.590281881890425575e-02,1.409210376947698795e-01,-3.413443176862496903e-02,1.401917622912675909e-01,6.019646245516661193e-02,3.108884126687096183e-02,1.044305504732894047e-01,8.592515193265425066e-02,5.625624607447520659e-02,-6.419888246091279282e-02,9.277921413551526442e-02,-6.152763182482924066e-03,-5.532291535810168054e-02,1.064472136607834928e-02,9.523367364502580146e-02,2.427021369356315572e-01,-5.434639386349146561e-02,-7.820519504538100963e-02,2.163339176998977514e-02,7.382071429283229569e-02,7.417645469090679289e-02,-1.719538417314812884e-02,-7.179666642858745229e-02,-8.001095750518265326e-02,-4.708315344080971770e-02,-3.267840846376328118e-03,8.211146863680400532e-02,9.538150633167057427e-03,-4.735041067710340536e-03,-8.399671986999643347e-02,-5.250502762950707419e-02,7.095846439757610979e-02,6.328947100369494705e-02,7.593087178322674435e-02,-6.215074501633011811e-02,-9.513698327069845806e-02,5.385242015719899494e-02,8.013387536034022318e-02,-4.296212872092183138e-02,7.821208098752266413e-03,-4.988680589513830310e-02,6.532778756307999757e-02,8.913256010151408837e-03,7.293767350955565609e-02,8.577523186347002504e-02,-1.252281741460575110e-02,8.222416706391882935e-02,-5.423670543224393126e-02,-1.010351633372575941e-01
-5.585765641619522270e-01,1.203780374529912246e-02,-9.747882693418143465e-03,8.563315991920912584e-02,-6.076306205756716594e-02,-8.153890838058722168e-02,2.755128773152929617e-02,-1.778940301175034253e-02,-8.614650604070847595e-02,3.176056333356430672e-02,-1.379924503484345789e-02,3.314887407809019582e-02,3.057784330390878394e-02,-1.030634479168355822e-01,3.600261091625320958e-02,-1.385752408765846509e-02,4.844039860203708248e-02,-9.335156287783502593e-02,-1.188236204730719163e-02,-2.617454760132905366e-03,-9.427837657663348803e-02,-3.595383061662371649e-02,6.898860037913218113e-02,-3.644908612418332888e-02,-7.418363928300135413e-02,4.443835755570153118e-02,6.660400782049290258e-02,3.052154766526333010e-02,-2.121339718851110445e-03,-3.974279574824498423e-02,1.265409819680415708e-02,2.134198583915575959e-02,3.720093209138094267e-03,-6.768684218808755648e-02,3.306866782293609031e-02,-6.515927012093532256e-02,-8.805066600072124217e-02,9.959742432325932593e-03,1.217619899900957564e-02,-4.677318576367935077e-02,5.415655967492800926e-02,-2.418639253655730653e-02,-6.302946039127180211e-02,-1.029369373617052552e-01,5.220427818949912452e-02,7.402179971497085953e-02,-9.677574906866943938e-03,6.768539985138424808e-02,-1.090115814876765066e-01,-1.710660683507583130e-02,-1.328749629154999945e-01,-4.135491453899625171e-03,-1.227596197749242640e-01,-4.571017717837540240e-02,-3.995183143472204323e-02,-8.137417832747670388e-02,1.290960264737956720e-01,-3.530580516440911393e-02,3.193635101080963962e-02,-1.071852673961959206e-02,7.074560080579159194e-02,-1.069863070128490995e-01,9.388071120310131912e-02,-3.441487536734041258e-02,3.332088204270088755e-02,-1.940397158302664335e-02,-4.446425078289655691e-02,-3.363034042534573942e-02,-4.176390158368876310e-02,1.186286411158315839e-02,-6.230369463737937298e-03,5.939159288656076230e-02,9.158119413027404621e-02,-3.842230311071966053e-02,4.904621529718532214e-02,2.182155200680456208e-01,8.488059191853090935e-02,-5.631180351032596954e-02,-8.398836187073845105e-02,-1.005880650750572564e-01,7.803530075690659484e-02,-7.188031741121453377e-02,-4.574276149650200601e-02,-8.432957141974166404e-02,-6.084603568486023073e-02,3.951401414646227295e-02,-8.938203425711151173e-02,-1.509827223448446387e-01,-1.765070210249211069e-01,-4.910201336710737219e-02,5.045879717177298093e-03,1.681509474884925193e-01,-1.636609958348548069e-02,-4.206673451877174230e-02,1.216157338909060331e-01,1.164587046673902920e-01,1.538182353130930317e-02,3.199899239504188503e-02,-5.638296934150125589e-02,7.747309072580121914e-02,3.758801053762995253e-02,4.778923673146805856e-02,5.685521243301837335e-02,9.449987663332747034e-02,-1.419438890002787217e-02,4.797710521369442233e-02,2.517083471601632219e-02,-1.191976775783569892e-01,-1.528579507761839151e-01,6.489774926382675668e-02,2.376675839652905159e-02,2.027863806418176706e-01,1.747597577249039580e-01,1.140131155694381476e-01,-4.609696096972711737e-02,1.818915838470410579e-02,-8.204411720690726884e-02,-2.856540969115529613e-02,-1.222724128374399338e-01,-3.078632594851168913e-02,-2.490209957380747768e-02,5.193583891959556442e-02,-8.761420067074827955e-02,-8.889240376822757361e-02,9.209085734946255430e-02,1.517111471602835271e-01,2.846589408475226363e-03,-1.198963283777201433e-01,-1.312853998161593316e-01,4.484648375718837399e-02,1.089380779566037905e-01,2.603242316775572496e-01,1.892339334473866763e-01,2.380627669973406912e-01,7.791532561493845488e-02,-2.235383690789468497e-02,-1.461553333372233310e-01,4.563864464394526248e-03,2.060150636737857061e-02,-4.596693181264514122e-02,9.349476782077262987e-03,-3.687812046783630476e-02,-8.068370592339599301e-02,4.580571962108843931e-02,1.111445032084571252e-02,3.057762472946966570e-01,-1.789323406571025760e-02,-6.647304247951581202e-02,9.150558034535724583e-02,2.284648688122395133e-01,4.199517409664812462e-01,2.740403299906719048e-01,3.773437245697632836e-01,2.274460192713439743e-01,2.150889157706875332e-01,-7.312210720941572650e-02,-7.665682601087715764e-02,1.339314409897514602e-01,1.754359426546442738e-02,-1.166738133075400780e-01,2.002046699331330726e-02,9.883071273806841306e-02,2.752112222791752369e-02,-5.833333370352015296e-02,9.204447401051270294e-02,1.760998352380955256e-01,-4.417709015855030008e-02,-5.406018984884974898e-02,-2.190558724382279596e-02,9.027171715686646558e-02,5.439077744696231287e-01,6.718367748800212480e-01,3.028926532993479470e-01,1.832143706941014860e-01,-4.803288714962260231e-02,-3.136276055839899712e-02,5.981074668002720612e-02,1.142892658440909509e-01,-6.159903633612141133e-02,-1.206043015931962566e-02,-2.875003713849838896e-02,-1.136878210825383387e-02,-5.856570285183414215e-02,-3.143300590725745663e-02,2.015802681440483912e-01,7.535008664847821225e-02,-1.329731946273049123e-02,-1.967681974396822409e-01,-3.773789707442480323e-01,2.654535297709504499e-02,3.897709497276622415e-01,1.804622963628183807e-01,3.393555496128669580e-02,-1.666904637108346798e-01,-2.446729263287253098e-01,-1.233827557684387261e-01,1.696319282862963351e-01,1.277724152041927463e-01,9.872948001717524180e-02,-2.010049672732802106e-01,-1.140154105172149629e-01,3.963822684101459166e-03,1.572937197206639853e-02,-2.175695364377880012e-02,1.388151408004862641e-01,2.984221341225403723e-01,-3.632658940758586724e-02,-3.276993467473300337e-01,-6.760809677573470511e-01,-3.601543225936107429e-01,1.141821176840497887e-01,1.171939451133659493e-01,-4.040715180365283404e-02,-3.050746845507871785e-01,-3.160215910370298142e-01,8.307446634509241257e-02,2.032950868639483710e-01,-4.917528141337466907e-02,8.212598258873439819e-03,-1.022378493905618108e-01,6.864789949811024583e-02,-6.057485032930181451e-02,-7.685422314715742442e-02,7.549587709691363280e-02,2.413911629074484144e-01,3.288805993805031802e-01,8.440661218683533085e-02,-3.757309395493309556e-01,-7.325348782371456924e-01,-2.321281946473258695e-01,2.603352407852335682e-01,1.928918876824755047e-01,2.449905407563345572e-01,4.758373411381574408e-02,3.871106015917404053e-02,2.000370240518484777e-01,7.150845677689417201e-02,-2.889709631250716657e-02,-3.371619624340687488e-02,-2.230542781202112523e-01,-7.755873004726607234e-02,2.839191494828709889e-02,7.117505780845698182e-02,1.837048412113673479e-01,3.198847088376994829e-01,2.702105720070847039e-01,3.255049990356266576e-02,-3.966458729245156412e-01,-3.913251771865492445e-01,3.162531604687054271e-02,2.809677854855530676e-01,2.928277682765522694e-01,-2.390564269565768115e-03,1.990766262805154091e-02,3.048591403842180192e-01,1.692837004136030499e-01,2.489903895958991698e-01,5.061835287071586587e-02,2.076636910017730375e-02,-1.806801327493192666e-01,7.108282479461243419e-02,-8.549674276149421201e-03,-4.446486976390261886e-02,2.121685841952539453e-01,1.835211903493513541e-01,1.295606272291976724e-01,-1.157346067378081655e-01,-2.590113017466120771e-01,-1.429127410731800552e-01,2.001163163707976866e-01,3.077316694077997794e-01,4.471546025808986746e-02,2.280353471794942591e-02,2.282382311683235632e-01,3.510170343808310389e-01,2.770680261936943611e-01,3.217946393644863234e-01,1.049475451126980208e-01,1.349072760902005064e-02,3.296180163398755580e-02,-7.049660478926574048e-02,1.309971109556237051e-02,8.796130841291308067e-02,3.957506783894226832e-02,-1.271521837107221324e-02,-7.282158568048602287e-02,-7.786638728827630085e-02,-1.519724562771451182e-01,6.259878753380314353e-02,9.276290425407306139e-02,1.870252579845376462e-01,8.674195904397306867e-02,-2.428986533880547055e-02,2.732035815938970158e-01,1.967852455713677839e-01,1.567135645587862947e-01,1.215696792553645350e-01,1.861914142998775945e-01,1.158948224049043269e-01,-7.004384079656872375e-02,-8.195371657656912168e-02,6.444371377061224038e-02,-2.226360301582895607e-02,-1.771639793860670109e-02,-3.729820770553824577e-02,-8.789922604435677911e-02,-7.696276111100520956e-02,-1.704970597364084683e-01,8.914479714972291247e-02,1.548675669504427643e-01,3.935445381534927178e-02,3.132838434759315643e-02,2.377575777579445798e-02,3.283799079371902546e-02,1.535017435898727300e-01,1.821667413234015764e-01,3.781098220545010304e-03,8.143673516075031205e-02,-5.211733478267497471e-02,9.560537637115272547e-02,-2.384065256430763918e-02,-7.246458776725661632e-02,6.510842479560600971e-02,2.482462344349148364e-02,3.443839237301865586e-02,-2.876998904180073230e-02,-1.615415384645844110e-01,-1.741355875788763163e-01,-2.289213683221221277e-02,6.244693394666167748e-03,1.341001737274316423e-02,6.510198840434637535e-02,1.139250362850076914e-01,-2.799374574477862809e-02,-1.714014208085214847e-02,1.329790586186531953e-01,-7.612724006161410151e-02,1.386774245146724927e-01,4.011858117168937837e-02,1.092377818102107101e-01,-3.803623138408937857e-03,3.877152199666160370e-03,4.272842628562523865e-02,8.142629709345071409e-02,4.661014209389540558e-02,-1.188488220353709629e-01,-4.696779187786182669e-02,-1.685564658481782108e-01,-7.029555737975087815e-02,1.140651750472617548e-01,5.439802014730719948e-02,6.804918558991952804e-02,-3.870182275478309397e-02,-6.202101642432032713e-02,-7.266066257505873760e-02,2.377327875507599664e-02,-5.414021867603517613e-02,-7.338856777209534776e-02,1.033529914230404273e-01,-1.854017104627808665e-02,-4.917263543092974948e-02,5.267694886974442353e-02,9.742341076076295459e-02,-2.385008330701423110e-02,-1.016389296564884359e-01,9.644177866165509760e-02,-4.703609264234226428e-02,-3.905512918152282548e-02,3.853923502656510930e-02,-9.057528559319615036e-02,6.810354861481704132e-04,-1.065286324099494891e-01,-1.136501920036763480e-01,-3.953858973669476667e-02,-7.411013762486630407e-02,5.702126145667337637e-02,-4.211002255671515704e-02,-4.240726196029484529e-02,-5.754948389063965775e-02,9.791346979022985675e-02,-5.957315045521245633e-02,-8.628006155905908192e-02,-9.347016337180533152e-02,-7.575792124304503439e-02,9.256070004329866596e-02,-4.306499448188397076e-03,-8.222649504374700269e-02,-1.028229795623070431e-01,-1.078580131323925301e-01,8.491252660459272517e-02,6.778854397752642411e-03,2.102753196738242972e-02,-6.266034377939366795e-02,1.018971402721371017e-01,-1.041091867421638090e-01,-9.561532278385687089e-03,-9.510934380049561321e-02,9.859780274860960314e-02,-4.269663410140758786e-02,5.688141140469771262e-02,-3.506457608843181317e-03
-1.134596603943975462e-01,-4.511662029667216217e-02,1.380690030055079821e-02,1.075769134387218884e-01,-5.437251999263308100e-02,2.833019703617083856e-02,3.173154120346246415e-02,5.687149782677675819e-02,2.725847342558300121e-02,3.161909762988923678e-02,4.299435214860496124e-02,4.596335396106625976e-02,-1.211993928774287048e-03,-5.875349334723557054e-02,4.893967334152519999e-02,1.087686960656634866e-01,7.605650280240365546e-02,-2.014728382884896363e-02,-1.018719470490866558e-01,-1.956422059693708332e-02,4.546559818532219105e-02,-9.708296211162130429e-02,3.706698196777172966e-02,7.330724730417183255e-02,8.517095040416138019e-02,6.726959413889140038e-02,3.527371731239555691e-02,-8.875792475107933954e-02,-5.540137255282057832e-02,-8.744230719731588275e-02,-7.928098392845185638e-02,5.099066605772149818e-02,8.609744846594555301e-02,-4.089225367388056587e-02,-9.016090534481639718e-02,2.348898899053361924e-02,-1.110088211570776640e-01,1.095137690845675721e-01,8.373740022438286301e-02,3.103095885786256308e-02,6.767357892170365596e-02,-1.078028515353067485e-01,4.538151261467732872e-02,-6.553914009297875931e-02,7.815723141382538430e-02,-1.019186633176105278e-01,-7.937806065019718804e-02,5.583493672190850687e-02,4.402574635937651221e-02,-3.999091897024709824e-02,2.566239344224200206e-02,2.260392290174450744e-02,-2.321317023944343555e-02,3.723762223054740556e-02,5.714397368807055261e-02,-3.683416268311793390e-02,6.191489052125089682e-02,1.721878278277627627e-02,-5.975151027485551408e-02,2.223530439879470647e-02,-5.944259517205726512e-02,6.034775638290560199e-03,9.274592152026479852e-02,-2.786791644040886515e-02,-4.153359530363164021e-02,-7.442870169272303160e-02,-3.596578220571573087e-02,-5.669535282083653510e-02,-2.739184829333078317e-02,-2.370442558896046492e-01,-1.132470710703697148e-01,-1.953019439620281017e-01,7.429053252312568800e-02,2.930704521165383714e-01,3.412774197992644032e-01,3.448870240931579123e-01,1.592755297036891338e-01,1.795915494116979289e-02,-6.047694467167671895e-02,6.328904770179799577e-02,-8.363351972441264437e-02,-1.754760943538845666e-02,8.557054154642038113e-02,5.547994855835657740e-02,-5.126712785643319087e-02,1.960387326713647349e-01,3.566198501160065121e-02,4.241900548586800823e-03,-1.418874359393491880e-01,-3.677948887352676111e-01,-2.654783402299152884e-01,-1.055179897676715578e-01,4.667084360673165976e-03,4.367533165876057444e-01,4.653613705546039148e-01,3.205193026593515793e-01,2.505585582761746255e-01,1.351095965740022886e-01,8.458338604014013426e-03,-8.786416053127500680e-02,3.558488976870560067e-02,3.082422665393543676e-02,-8.910929965302769734e-03,-6.633216476855270660e-02,8.567427882518977023e-02,1.975889586058117431e-01,6.942956635433863641e-03,-1.728779419577676779e-01,-3.785400038445597137e-01,-5.567906896321503929e-01,-4.518586167403872422e-01,-1.238249575640327643e-01,7.449869941723444300e-02,2.979954228691311102e-01,3.449533668047147783e-01,2.634750079837965275e-01,3.115414818700370514e-01,2.227802047311895350e-01,-8.772148748303523758e-02,-1.823707917613135582e-02,9.147505792597930563e-02,-6.910605535402880584e-02,-1.013310962203097382e-01,1.374546185471168559e-02,4.031976156432660191e-02,1.709970756965749072e-01,-1.145436463440658303e-01,-1.784982613072925162e-01,-4.326659442024212154e-01,-5.225145485236291076e-01,-2.390530292654577116e-01,4.843895391090583674e-02,1.811121861684001910e-01,-7.538828639361062900e-02,1.352212554160560354e-02,3.180590894462840268e-01,3.496222586882121175e-01,5.635805626088111198e-02,-2.968133954959580739e-02,-1.784073221295992828e-01,1.023027134726141596e-01,-3.963610713831174776e-02,-1.535206692171040173e-02,7.263512613664505069e-02,1.711953838184643306e-01,-4.558569901174437319e-03,-1.984504351849315229e-01,-1.710986280313009644e-01,-4.546250549972550292e-01,-6.096595948069520876e-01,-3.339627986630543388e-01,-9.873598432434715910e-02,-1.858350024870562278e-01,-3.694959713176393934e-01,-3.100625527642300594e-02,2.377045948497154004e-01,3.448511909927248764e-01,1.464610732331448339e-01,-1.024633509895965106e-01,-1.886643006478680717e-01,8.451374254912534523e-02,-1.009417877694269577e-01,-7.493590439238120848e-02,5.582210118291011658e-02,1.972427517548897558e-01,1.397828776249942506e-01,7.790414992776575898e-02,-1.920554398279701591e-01,-5.509407431330353155e-01,-6.631419278582642018e-01,-5.413710940851835796e-01,-2.424275990005062276e-01,-2.558929759751642496e-01,-1.361889129728082459e-01,-5.401169962633278580e-03,2.723026539275431035e-01,5.268725595332320044e-02,-9.906224757796501523e-02,-1.108512195515809901e-01,-2.214043046094902462e-02,-1.076877955814346394e-01,1.058211481699441597e-01,2.655775451108739749e-02,1.382265391500684393e-01,4.554134175766642589e-01,1.975738453567932873e-01,2.497362083312366643e-01,1.029708166982832712e-01,-3.067887123110544789e-01,-6.248029988123265932e-01,-4.593644618976240324e-01,5.139293357418402847e-02,7.095278531276694167e-02,1.297448660650209751e-01,1.373976971569654815e-01,-2.716420120531309532e-02,-1.281396920195496669e-01,-1.158183290339480365e-01,-3.575466464842891323e-02,-1.080770939643778406e-01,-3.576511869724987441e-03,-2.452602177564731575e-02,-9.754987261230432805e-02,2.770017964928329218e-02,4.820900290155807344e-01,2.576718603603133650e-01,2.068436549047041051e-01,3.484610539216981828e-01,3.344071113763478764e-01,1.003048901437896268e-01,-7.585072806538608898e-04,-9.420608971368084339e-02,2.956447179307284887e-02,1.286289572010145821e-01,5.024325135641526281e-03,1.287312684387077188e-01,-1.145984173483296925e-01,7.998277016697107056e-02,-4.735983741280798409e-02,-1.805136156523600433e-01,-8.974191325194492974e-02,3.990262698994582330e-02,-1.271039926118066876e-01,6.111290586231044736e-02,2.913424536419430555e-01,2.118596353091071471e-01,2.144469927227880546e-01,3.055940545501874550e-01,2.744986208405183481e-01,-8.700318512675379867e-02,-4.583466804253923943e-01,-5.298387800120125668e-01,-4.062035282478839160e-01,-2.508111884731881736e-01,-5.362211747057003125e-02,3.361920765883188913e-03,5.846489644616700149e-03,1.114460890837755819e-01,-1.193824226607117373e-01,-6.253959337786085468e-03,-1.937466066207345697e-02,-2.172741758152595126e-03,3.867452051551902026e-02,-3.332438638569616696e-02,7.386204831835911644e-02,1.015457062671760308e-01,3.038933508232827818e-01,2.721995914614063761e-01,2.018334609174309291e-01,-2.857668291983982423e-01,-5.230956921907695678e-01,-4.412129185635774720e-01,-3.044684902328128051e-01,-1.453947837037158353e-01,-5.415993799745816685e-04,-1.698219671487581194e-03,-6.645514686223184982e-03,1.785217256929306356e-02,-1.631953247446795985e-01,4.739477560057833716e-02,2.374154081242475095e-02,8.950242088920734584e-02,1.930058574609546523e-02,-1.065191636807001352e-01,9.813476412281313399e-02,2.300523547919432477e-01,2.589723924932098575e-01,3.846478014650984156e-01,1.033433508665366346e-01,-1.830472239340787399e-01,-1.472636453983727223e-01,-1.910518656903831825e-01,3.669223530694767314e-03,7.934893386337772692e-02,8.886586665401340068e-02,4.375829011056544399e-02,6.620593098016260003e-02,2.831819460585322662e-02,-4.086010955655605681e-02,-9.823735580978656956e-02,7.278827716515237634e-02,4.265535573186043927e-02,-2.917948278280668370e-02,-6.062808258486835494e-03,-5.837734362670666394e-02,2.508912855091082750e-01,2.687206570703395414e-01,5.315949367725325558e-02,3.961503250141649307e-02,1.951735928703555696e-03,-1.806472367411579016e-01,-1.325282633435622970e-01,3.749848077730767032e-02,1.972290716723023862e-01,2.065184686068096895e-02,1.468342858793996730e-01,-7.690408362448027460e-03,-1.510108229290850756e-01,-1.949880968542139770e-01,-8.407312900668914568e-02,-7.643176265262323181e-03,1.112110655990777713e-01,-1.005726824083043591e-01,-5.483681229446205063e-02,-1.962492111044989232e-02,-1.051435466592239975e-04,-1.502873552568314251e-02,-1.279516050574551200e-01,-7.124339130150934840e-02,-9.048624725006778474e-03,-1.995611256039906689e-01,-7.724112244532573002e-02,1.784814584578984370e-02,2.189783788197890158e-01,1.987519085316175882e-01,1.294225505757917727e-01,1.567751567959526915e-01,-4.896142200999238636e-02,-1.408220878865024950e-01,-5.976473712360066276e-02,-3.168055290450439571e-02,-1.066752911722339825e-01,3.922909951627525510e-02,-1.126275477403418518e-01,-9.927406336682324806e-02,1.414286117210155139e-02,-1.712836375861297999e-01,-2.096463978427007824e-01,-2.395351316840673567e-02,7.867395969473427175e-02,-1.068874213536643025e-01,-2.154996726841713547e-02,-1.030268784349293483e-02,2.143232560017382382e-01,1.259715666935792011e-01,1.609864814255713150e-01,-2.687695842981390262e-02,-2.253781397677872764e-02,1.650566967366841678e-02,3.095051993382993277e-02,3.741788574281704020e-03,1.235199317435040686e-03,-1.744923588991584285e-02,1.150582065295023201e-02,-4.594655268868610976e-02,-1.125688609509745044e-04,-1.607446648088207142e-01,-2.075506451086834292e-01,6.484157633084652872e-02,-1.054960785228753056e-01,-6.421292467363917678e-02,-8.278474608086162922e-02,4.057832651752114189e-02,1.222277847857737437e-01,1.844531228758533870e-01,1.149484165679505454e-01,-6.549094849836860355e-02,2.502882920602918573e-02,6.397326311844719893e-02,-9.266553454563174197e-02,1.030390852490804462e-02,-9.138082947104020359e-02,9.356256448007728432e-03,-2.477351619916786773e-03,-7.941859608389900682e-02,4.594780521429012513e-04,4.168320605022778763e-02,-1.372387324790245999e-01,-2.874560409389492061e-02,-8.055703220055704383e-02,-8.785667102635393022e-02,-1.303170049223485449e-01,-1.258779696365874834e-02,3.430956013214579714e-02,2.695402067613411612e-02,8.746229633474576770e-02,4.376825263161029933e-02,6.757103416797232559e-03,-1.692874810916461178e-02,-2.304316306721651553e-02,-2.368019082531624270e-02,6.346603199426058273e-02,-5.336031981228969018e-02,7.138035927711233741e-02,8.599716402477376731e-02,-1.246893225207573383e-02,8.538874965180567878e-02,-4.842006062845004288e-02,1.050843900894165989e-01,1.095591660711858900e-01,6.381432782214184474e-02,7.908050846087896768e-02,-5.743568761835989717e-02,-9.361641374010565286e-02,-5.079358149700888975e-02,-6.673580786213234584e-02,-1.006000994255568104e-01,-2.101622937532645480e-02,4.423580059594495184e-02,6.308586999974757914e-02,-4.782475305433628310e-02
3.796481689704201412e-01,5.779111548339341264e-02,7.303750416391435740e-02,7.014854244585326526e-02,5.984966089854003302e-02,7.542860269443736609e-02,-4.963692963061926144e-02,8.789019170149307836e-02,-1.970323844249752612e-02,2.955015505345219215e-02,-3.237385503841965634e-02,5.362906209049472794e-02,-7.360037241667267971e-02,3.255459081635794782e-02,8.255207363114868552e-03,-1.685313039864623150e-02,6.786843486362706922e-03,1.074609583507789012e-01,-5.113750224235439484e-02,7.359815055491576719e-02,7.268687394022847748e-02,-9.117531775636616986e-02,-6.826644438853300689e-02,-4.819855425387240683e-02,-2.554762472513960950e-02,-7.690415325125748991e-02,-3.439704025982356916e-02,5.468745817652655855e-02,4.960051907281490258e-02,-6.795813104205641886e-02,2.065535171925720476e-02,7.844231972081383564e-02,-7.069051099591013021e-02,4.857171539202969485e-02,-9.004822052566470447e-02,-8.555220449594205800e-02,-8.915407483505496944e-02,-1.058629792331941266e-01,8.444580461657315296e-02,4.863476959322655252e-02,5.243056119462365799e-02,-4.935218007542302443e-02,7.218054311032037762e-02,-4.599898987037044640e-02,2.340443941878003753e-02,6.382945081505789209e-02,1.784606741488099085e-02,-1.007926728916940656e-01,-1.031569558035906470e-01,1.743655055512137453e-02,3.720572396587617375e-02,-8.972582766642198115e-02,-1.035361104150849115e-01,2.932377942378122659e-02,2.871898044360536584e-02,-6.044485071898100109e-02,-1.429915259333217233e-02,-4.884902447626228439e-02,2.117304428458831669e-02,3.410624358986328458e-02,4.511640429036783972e-02,-4.133878613538546042e-03,-9.055259916302499379e-02,3.550410306893184154e-02,-1.965664511257770100e-02,2.518820514109976552e-02,6.389640437798400907e-02,6.643055093156098601e-02,8.298068495021466984e-02,-6.542622277331631986e-02,5.316385038796860724e-02,1.809992503687825605e-01,1.326902922364635862e-01,-3.199983727837023284e-02,7.773997953759190227e-02,-3.285079381867546389e-02,8.510687929352597769e-02,9.920086290838062149e-02,-2.586246084890792690e-02,4.813948192021411804e-02,-1.095864458109102324e-01,6.390418928334519466e-02,-9.204038404041703370e-02,-1.319090135405080917e-02,7.159868051765777563e-02,-4.011222575253864386e-02,5.399713488938980704e-02,2.399049752868208721e-02,-3.667433152072873542e-02,-5.089630786207078109e-03,2.633847927881689532e-01,2.485783299058108575e-01,2.649745530568793361e-01,2.064538474286341935e-02,-1.353394521161975939e-03,1.114376403520993680e-01,3.923351031502550490e-02,3.364570638599499036e-02,8.770605625339064626e-02,1.103152565628508913e-01,4.511154004281193314e-02,9.435591559359624014e-02,5.047169775975059863e-02,6.512770107465312708e-02,-8.635802585197499548e-02,9.891929420519864069e-02,1.819350566415831871e-01,-9.816474826355547911e-02,-1.517452003832479510e-02,1.621575309148846344e-01,2.755136480134703358e-01,2.644972704199475277e-01,2.125704050981380433e-01,1.245614523308505306e-01,-2.674139990098166070e-03,8.367773242688464341e-02,-2.529121313951132946e-02,-9.766892993101664033e-02,1.778724757120953848e-01,8.455932756244495530e-02,-4.800675102985673542e-02,8.707611814886798141e-02,8.028879754703170668e-02,6.793388614427776917e-02,8.850555944453483703e-02,2.385099249367572949e-01,4.827450639689638556e-03,-9.144648123967527575e-02,-1.149504142011757366e-02,2.680946331566943508e-01,3.981216902170511829e-01,3.337759923197794465e-01,9.591945139762321493e-02,-3.345953542644128365e-01,-4.012026948421518746e-01,-4.940323825561818843e-02,-2.222135096026525355e-02,5.142065386436551339e-02,1.780833810601538392e-01,1.730272566524891087e-01,1.052866609737296115e-02,-6.596217252370438489e-02,7.665490341556426002e-02,-5.240419828945799829e-02,4.227415276215834572e-02,2.170444335005138337e-01,-4.542298301711544806e-02,-1.555284013918773467e-01,-2.550773452153593315e-02,3.855688480409433794e-01,5.089295033980213434e-01,2.063714584255834927e-01,-5.379210527603404957e-02,-4.517049259137003725e-01,-5.009707724875641643e-01,-2.501737750024035645e-01,-7.872242788960190363e-02,1.301557189683907600e-01,2.529228095556501077e-01,1.477067756581808000e-01,7.790749581396712309e-02,-6.680198401756519411e-02,-2.595742894107846976e-02,-1.191654968588598124e-01,1.369012038690093913e-01,-1.840975119208414570e-02,2.482701957340722326e-02,-1.146164473831548652e-01,3.290219635340121407e-01,3.998242933115410125e-01,3.611438610627571433e-01,3.786409630374844987e-02,-4.338701622900285049e-01,-5.054227738911478696e-01,-5.645861933686202594e-01,-1.865432964806350291e-01,-5.941936112136244827e-03,2.851018113084823405e-02,4.713583751252828358e-02,1.707004048160934429e-02,4.380633216601365759e-02,-1.931594271275083666e-02,-1.048822821452424954e-02,-9.065127389979672767e-02,-1.256230937894547983e-01,-2.171729157843335645e-01,7.509853042569047954e-02,-1.307099780022501385e-02,1.761473121654237584e-01,1.792066613662026409e-01,-1.365671480443268193e-01,-3.199852906829100396e-01,-5.533841432702294449e-01,-6.134983846567860777e-01,-3.398173617442961647e-01,-2.960766140424030135e-02,1.781830061969380541e-01,7.260068263173342917e-02,-3.419555047166995126e-02,1.432841598693525564e-01,-5.658040084783052398e-02,-6.011236904213529408e-02,-3.297197389358855896e-02,1.056234912034067532e-02,-2.310885116718684462e-01,-3.109666856027899495e-01,-1.968621892345586571e-02,-1.341190396640688960e-02,-1.571659280572541839e-02,-2.203006954776746129e-01,-2.661774102898262218e-01,-5.287408994590365729e-01,-4.407134981575862032e-01,-3.479311298908748795e-01,-1.631367001573821585e-01,4.722190346172001028e-03,2.707928178428854471e-01,5.586133748070519489e-02,-1.158999495406713015e-01,-1.945114634148419064e-02,7.833966498637993936e-02,-8.969052766433935342e-02,4.664278115298034488e-02,2.184380209281823471e-02,-2.153813772499555135e-01,-7.741990725177394506e-02,4.223481361836268350e-02,4.814569707216815458e-02,2.900235012337541024e-02,2.018971742640271114e-02,-1.158376186496710425e-01,-1.190432864398096591e-01,7.181921625827292210e-02,1.392279759656692706e-01,1.896516158818616349e-01,1.566746880080518156e-01,7.423155496150106447e-02,1.048194229693720503e-01,-1.374743407491467537e-03,7.244979955788671822e-02,5.101444840678565767e-02,8.770323340235386400e-02,3.993641347798430885e-02,-7.529402262095863385e-02,-1.140215245693540352e-01,-1.856091552572025349e-01,1.150730104943024912e-02,1.397305173147882773e-01,2.129182598771491852e-01,9.692091379193271128e-02,1.910071471870957993e-01,2.247745163417884939e-01,2.291196671191446377e-01,1.296230183843423978e-01,2.030787365998327487e-01,9.974147706076248732e-02,-2.118479092752654017e-02,-1.262841361038795629e-01,-9.512386605493602931e-02,-2.212817652288012055e-02,-8.444172838085839405e-02,-3.304497709850577614e-02,1.045800457690252705e-01,-1.386101030498905484e-01,-1.388453916745591710e-01,-1.830604755250019033e-01,1.817626330862949155e-02,7.125121007832162234e-02,7.027801259864123462e-02,-9.491351061453516536e-02,1.848823215719032076e-01,2.903719374464820979e-01,2.975569687101784488e-01,1.776100719716061094e-01,2.385423663337263578e-01,1.042887876837318532e-02,-1.590524241530077987e-01,-1.059009410562486708e-01,-8.511899759890290129e-02,6.818318354001598469e-02,8.017209174216008427e-02,5.606675589505488028e-03,-3.286978371550152572e-02,-6.048760625968446075e-02,3.209975044842718755e-02,3.661646261462220969e-02,1.781542674199730336e-01,1.324312938180719768e-01,-1.231181483106259245e-01,-2.333048880275623571e-01,8.541892193327541016e-02,3.056726005621688835e-01,1.972720637346018768e-01,1.144586941372672806e-01,1.805043636543014196e-01,6.802839068357789676e-02,-7.522234301080385488e-02,-5.788856241276676279e-02,-4.854322179076035748e-02,3.918682408740518236e-02,8.239506527703166494e-02,-7.680510558922271080e-02,-7.363679915811714716e-02,-4.289171339814186468e-02,9.961293978160833118e-02,-1.039228981080553976e-02,1.507130751391871359e-01,4.553746168188037985e-02,-1.488702123729485904e-01,-3.898099353109982235e-02,-5.727291718217197847e-02,2.406762767947445703e-01,1.488866190146064528e-01,3.389543615017819728e-02,5.028628036393514855e-02,-1.472971803519305123e-01,-7.979949763386163381e-03,-1.100450318327199778e-01,-7.649815702847752308e-02,9.051494382885914847e-02,5.650986827534854734e-02,1.860606893410367627e-02,1.157761772094197811e-02,-6.677397359306833091e-02,1.184791648581741547e-01,1.688147519190973944e-01,1.650509198681489875e-01,1.707679778389938618e-01,5.973156905794435416e-03,-6.594274653012494047e-02,-7.204864699833267438e-02,4.754129450314662636e-02,5.160509665004356372e-02,-1.368245647313246216e-01,-6.209683472273842819e-02,-3.069749093903506934e-02,-9.152646894480045980e-02,-1.061178047006062497e-01,-2.121807587408598619e-03,7.149675506502872757e-02,-1.170772865159798448e-02,9.049872737834619395e-04,-8.942346385409657983e-02,-8.177971799613735493e-02,1.107594569475500029e-01,2.186174061059298901e-01,1.605180994333229860e-01,8.494766509120199593e-02,3.253771686826530118e-02,2.979188602239920061e-02,7.885175521522246739e-03,-1.662053652029533632e-02,-1.142095414113859786e-01,-1.404266028255026222e-01,-1.460942375132621984e-01,-1.012567547258347578e-01,-6.030330700774173824e-02,8.162827674297881697e-02,-9.948335292173118155e-03,3.285612170798140469e-02,4.839433779653881662e-02,-3.314184706099478073e-02,1.060493901388634280e-01,6.216827767456474529e-02,-9.869070026071351254e-02,3.138877913189853236e-02,1.590163181156816763e-01,7.665057273357492318e-02,8.485683728439608053e-02,-8.902797426191565167e-02,-6.560862118408099242e-02,-1.018586579829774130e-01,-1.142975303894633865e-01,-5.965570261818956693e-02,-2.445422218294572916e-02,-4.426108976622103452e-02,-7.436270417612123040e-02,1.065682810304087319e-01,-3.665039389553296362e-02,7.702394519998116695e-02,-1.554782709981885475e-02,-6.708842991305120906e-02,1.115850100231521175e-01,5.964468071062286464e-02,-2.009051381336355094e-02,1.165091307520430691e-02,-4.756220264740858295e-02,-8.843409424841755517e-02,-9.790546669651234435e-02,4.145989213934843376e-02,8.845809207228626236e-02,8.781761434413269674e-02,-6.822523741189691349e-02,-8.496833373731327646e-03,3.886792493778508384e-02,3.196150941725580535e-02,7.108595494733656317e-02,-9.251862316435792086e-03,-4.372453281487077154e-02,-1.837987768379177947e-02,9.758185406669699080e-02
-3.747717743746847852e-01,3.085042862658178217e-02,7.746762828765485498e-02,-7.566207137897872081e-02,1.208351296304464861e-02,-5.128874355333853940e-02,-8.973440579134345230e-02,-2.520254491692282620e-02,8.244326937207338557e-02,-1.008292040344501012e-01,1.641258798705992270e-02,9.506974381368900329e-02,1.055469715392693825e-01,6.456361311724961860e-02,-2.665426382350586862e-02,-4.918915110410724406e-02,4.219078161511267272e-02,-4.316913074032213693e-02,9.561801669294799078e-02,-6.542888039711958724e-03,-9.348412202068134835e-02,-2.819844955730887396e-03,7.493899918356722312e-02,-8.596259868733327481e-02,6.692532214520423295e-02,-1.195573937649792133e-02,5.868567208317781309e-02,2.727244642039556438e-02,-9.188617547279842590e-02,3.290280120467758973e-02,5.937581451583052311e-02,1.662502697916613814e-02,-4.960957106839368469e-02,-5.051115662901728420e-02,-5.019750213173757719e-02,-7.271007792069497655e-02,1.062763718065208030e-01,8.006605761218192618e-02,-1.109024004725141649e-01,1.089961837212655299e-01,-2.276689252982888600e-02,6.915899865548773284e-02,-6.874226005520218952e-02,-4.117784338187876342e-02,-1.295025822889906385e-02,8.435979401933456356e-02,-1.170966767959107230e-01,4.826197830394391569e-02,-4.861954186977224951e-02,1.072152453100825714e-01,9.899446957881982700e-02,6.115123084494324124e-02,-3.133609516344752766e-02,-3.309670571872588840e-02,-1.074278545674219459e-01,-1.511962805769919982e-01,5.483318745801790683e-02,-5.315924557541448769e-02,-4.656494115366043712e-02,-5.938538644026574581e-02,6.779714456544941314e-02,-2.875539914448370024e-02,-8.507616079224333827e-02,4.949550901825360005e-02,4.357697998271339163e-02,-4.205739336691947244e-02,4.375154105437034646e-02,1.071779807455058853e-01,5.555737604861910733e-02,-4.541828020605570559e-02,-1.010142276256036226e-01,3.597919680419464639e-02,-1.448411463293154677e-02,9.555037239022336204e-02,5.052329978429095925e-02,-2.200497982897747611e-03,3.514958893424775799e-02,-2.707712400970243433e-02,-1.542906783415467220e-01,-9.584737863324400975e-03,-4.448144766815426143e-02,7.901617055782884924e-02,-2.451604019013943481e-02,8.471759564030506562e-02,-7.928524392424332601e-02,-7.893846668786838605e-02,1.409632419485586097e-02,4.040252393172785728e-02,1.271363419715040508e-02,7.379774421172957677e-02,-9.130991917589184603e-02,-1.079589923535628770e-02,-1.087393776021005343e-01,8.514288348923540473e-02,3.189445917351444448e-01,9.666690807249955775e-02,4.848940371138142635e-02,-7.387124815526109611e-02,-1.286497065908135395e-01,-1.204774482248086448e-01,2.150985793864586965e-02,6.015381768129984125e-02,8.355839068222394028e-02,8.382479260619091210e-02,8.451246282790850217e-02,-1.247541962441640756e-01,4.346806832980872580e-03,1.699468159130605172e-01,2.770560819886578319e-01,-5.494755282241552130e-02,-7.234060319118917892e-02,-1.438665220720719562e-01,-1.045756483648676433e-01,1.824076706946849147e-01,3.493717765140022524e-01,3.706357503342523341e-01,2.005574108941328704e-01,-1.402305463259144735e-01,-2.754087223564811171e-01,-9.994494770297787656e-02,-2.745744546890850624e-02,-9.711083101217957148e-02,4.290495467757327042e-02,-8.966926117853737943e-02,3.805821914756486735e-04,-1.139172504144488063e-01,2.002900978896668960e-01,4.029894735417374751e-01,2.748499581216246601e-01,1.090673265815830795e-02,-1.612936974039495541e-01,-2.239920803921062464e-01,-8.131239678238441626e-02,1.070476222474556482e-01,3.589415990662080946e-01,3.181600862725280643e-01,1.481390097352133228e-01,-1.266128777769498226e-01,-1.281164569499539628e-02,-1.306287133901991582e-01,6.072965453858110429e-02,-3.932846542547538404e-02,-1.569785853282377672e-02,1.377706761880715010e-02,-7.394160586541874414e-02,1.236859721262582347e-02,2.963029789424826421e-01,4.688064927606468979e-01,3.312440821244472811e-01,4.480772396568541947e-03,-2.439063691147969615e-01,-2.479231967356751165e-01,6.615844180146425446e-02,2.264425450254019256e-01,4.904064932418680800e-01,2.453613579675581469e-01,1.602432753313562663e-01,1.207092290559936831e-01,-4.526909683636936438e-02,8.530038585024125875e-02,-5.234862310798645696e-02,8.351733611284874181e-02,-3.907361881141925564e-02,9.136086122441144930e-02,1.226847525753579395e-02,4.480870810526148273e-02,1.128675371057981797e-01,3.539905402064021933e-01,2.677154764833384881e-01,9.658943431021566051e-02,-2.133612564602108963e-01,-1.338127645252979725e-01,1.309543473865626695e-01,2.347632615839452541e-01,2.678989648759384501e-01,3.042209459162664165e-01,2.445358398805672073e-01,2.903152747049797533e-01,3.138291523030948410e-02,6.098338112870960864e-03,8.772104445001463469e-02,-9.916731685547679198e-02,4.616997396815565591e-02,-7.767695641846577431e-03,2.640477632504105443e-02,1.504137473997868013e-01,-8.387522236953651178e-02,1.203424104928575433e-01,1.643118664490564318e-01,-3.892762658028747769e-02,-2.579857362440858282e-01,-1.400534554044891022e-01,1.345365725663279569e-02,-1.470726362315563814e-02,1.391247546686959213e-01,6.409898929200021425e-03,1.929491257280873395e-01,3.564303889872021402e-01,2.166721823377086298e-01,-6.119606733785949715e-02,1.334538879571885162e-01,4.169037809397439093e-02,-7.132872466121946420e-02,3.499962953479798106e-02,4.324228882854529860e-02,1.302440837175025123e-01,-1.712119834389435602e-01,8.895260637374922952e-02,-1.496996640506005963e-02,-4.181371146266497085e-01,-3.746807692936608425e-01,-2.517543370559339744e-01,-1.480287389081499372e-01,1.243291000986844058e-01,-5.288958130603412661e-02,-2.545636554302373178e-02,-1.014397544666771067e-01,9.858825366505633014e-02,1.729716632264029774e-01,4.290872761674535685e-02,1.283510660425244976e-01,-7.823453884149716986e-02,-6.064202182728699320e-02,-8.018597631266626002e-02,2.024928328129582122e-01,-1.192226968657290019e-02,-1.634101327684233940e-01,1.313071103509985509e-02,-7.552387523003489811e-02,-3.238874544460622062e-01,-3.030800785066282144e-01,-3.015603887924470650e-01,-1.565956532151736580e-01,1.265929718263974768e-01,-3.464648144501083354e-02,-1.873299904869212551e-01,-1.468113093654821455e-01,9.911089566084994862e-02,3.282072813330527694e-01,5.736389100933270840e-02,-1.099217142450219925e-02,-3.633123166650910341e-02,8.371818281277731630e-03,-1.674844978980781773e-01,1.057185280210201223e-01,6.133827705962548171e-02,-1.470711579526363111e-01,2.084530418707398747e-01,3.043363827905555194e-02,-2.485121416383451742e-01,-4.042692143058544407e-01,-1.936410492295113916e-01,-2.512893496418457939e-01,-8.334456849137238457e-03,3.742212738106209108e-02,-8.356864538896018046e-02,-1.106413404093033528e-02,2.668054277819414954e-02,7.871962533097875969e-02,6.035886099346087635e-02,-3.712800379331990253e-02,-1.029157616966503846e-01,-2.964840852961210180e-02,-1.854596707743924600e-01,1.289072488110674375e-01,9.118018011674194900e-02,-8.066990151083250349e-02,3.002826005799848486e-01,7.997104861227567751e-02,4.721125185457195755e-02,-1.895963473270373956e-01,-2.102586059006090469e-01,-1.194496321534859323e-01,-1.002022993377097715e-01,-1.176932571855674736e-01,-6.542290880583971624e-02,2.014933949446581080e-02,6.022136287881965644e-02,-3.248538213972030492e-02,-1.192101675991720233e-01,8.472842576941819193e-02,-6.199576074126292996e-02,-8.367132077889676001e-02,-2.209917132664860479e-02,-7.650406291242520251e-02,2.250019869787254212e-01,3.510154589847711004e-02,1.118111874418269425e-01,8.361551145854061173e-02,5.162809609386617010e-02,-1.670510272311200861e-01,-2.244613399642657048e-01,-2.321758240367602366e-01,-1.958965132205083264e-03,2.361654638832018024e-02,1.236901816738257553e-02,-1.442574806872132763e-02,-4.091428069560577863e-02,-4.811880369065275886e-03,-8.307638804890631057e-02,-6.259016014985739618e-02,-1.100522614567720076e-01,-8.475113205627599067e-02,-3.433265365304609407e-02,4.216797374199150739e-02,2.396121889888383205e-01,2.809853352622257439e-01,2.175170208294866792e-01,2.472291710219090000e-01,-2.856105959379363554e-02,-5.552405362320424892e-02,-1.688120016587453184e-02,-1.160010728755349191e-01,-2.461473626352123772e-02,8.445241042847095869e-02,2.303100832365719344e-02,9.611453138653271167e-02,3.822144687948824532e-02,-1.045170379271272293e-01,-8.261296515552152275e-02,-4.828764988401165748e-02,-2.592812742794584069e-02,8.565707285540850868e-02,-4.965132964594549253e-02,3.943567384894361427e-02,1.762724316974416117e-01,2.778602901775025225e-01,3.218938314915770205e-01,2.243566218070551788e-01,-4.186164800746500214e-02,9.791302213379837749e-02,3.223128155646460408e-02,-5.225760090646053291e-02,1.099715928531008191e-01,2.013533797332722752e-01,1.895920093307971455e-01,1.815424667451399632e-01,1.259858101665171926e-02,-1.161403878637335199e-02,6.003633222303065425e-02,1.623873784317000912e-02,3.623178476730643666e-02,7.033069595262335383e-02,4.736874998868789710e-02,1.213634445470872791e-01,1.669455611272261386e-01,2.554916769454375625e-01,1.633505800054553814e-01,1.531399305945232991e-01,-6.057866367500128191e-02,-8.946734890428402476e-02,-3.940420471191074386e-02,1.200631658348397524e-01,1.482820719308182433e-01,2.773115580127796451e-02,4.553314484116905564e-02,3.145861037914072372e-02,-1.083587314546929220e-01,3.732855507135372092e-02,5.139102040881388805e-02,1.010701009171892789e-01,-1.772546194395425295e-02,-7.386250284063980431e-02,1.116287183192393173e-01,1.139646527394781589e-01,6.007851973991327338e-02,2.685457142912748077e-02,-5.070659302985640327e-02,9.693345029585485884e-02,-1.138869499583597920e-02,4.187782532021726983e-02,3.564664275114409753e-02,-3.917849227142482932e-02,9.695127757949487113e-02,-5.947167660660837574e-02,8.394952740862085538e-02,1.704883366193403211e-03,4.657547053810934951e-02,3.214439919587425143e-02,-7.627727667194944550e-02,8.613197958283419498e-02,4.875933168516690883e-03,-2.353140296178254237e-02,-1.022592265867994371e-01,1.829170497583575833e-02,7.096399248159540596e-02,2.376849391884421070e-02,-3.848122482782485865e-02,8.067072688480252107e-02,1.838167519630497238e-02,4.497886303022793908e-02,-9.215510506094236332e-02,5.248794296187874603e-02,-1.009277653172330758e-01,7.536191685752358094e-02,2.831624989961679592e-02,1.040090716590478248e-01,-9.109232990130620988e-02,1.057868657663633277e-01,-7.381794187279122621e-02,4.633822643283261322e-02
4.284444091195614424e-01,8.009103439793104073e-02,1.793799472325742841e-02,-8.003352781714444253e-02,-3.016232606302710062e-02,3.450115419525587312e-02,-1.607167925595583829e-02,1.107472498308550851e-01,1.460196977326388285e-02,-5.970700894362111766e-02,3.332756726208913056e-02,1.068141893226350891e-01,-7.643036233886045527e-02,3.867417876675596777e-02,-9.450521262566098646e-02,2.785012807243806773e-02,-1.843712356536854682e-02,8.047687952315508986e-02,8.685513330635073748e-02,7.015787515384780404e-02,-7.362752832516722412e-02,-2.002736946750989164e-02,-2.126464744924282460e-02,-3.912754876424825307e-02,-4.691409795805352029e-02,4.464200068028545410e-02,1.591439324909291186e-02,-9.723029315585901555e-02,6.593099736554368373e-02,1.133923813485831350e-01,1.113006273461877860e-01,-3.827487813428579345e-03,9.126434317716068667e-02,-1.003538731014535779e-01,-6.557460274017675068e-03,9.656726858623500276e-02,5.137828859930039516e-02,-8.933454092667554580e-02,-9.018271086412402854e-03,-6.448828068096541799e-02,-7.616876625640216225e-02,1.825484758421315468e-02,9.605971197008772444e-02,-8.317218864799136302e-02,4.537038607204836593e-02,-8.039933122441068891e-02,-4.998270379818381404e-02,3.131266343276014469e-02,9.720878254181582190e-02,2.146755605703002702e-03,6.188155054793163801e-02,2.586391860906670642e-02,-5.847969572350351745e-03,6.614887364304947170e-02,-1.314585552877233776e-01,4.197505889470168339e-02,-1.022220497890371504e-01,8.044741720028180526e-03,-1.159038759366008836e-01,-3.305547274023827586e-02,-9.208010422171167275e-02,-9.572947584089545880e-02,5.693455906355524010e-02,9.624785420263116953e-02,-9.753340774864988072e-02,-1.008037245151488515e-02,-1.304452435895685491e-01,-1.181895172423426538e-01,4.037352318952448782e-02,1.519696705345094101e-01,-1.748258253917918045e-02,-1.339813915744623649e-02,-3.781376582769412770e-02,-2.341494900807632173e-01,-2.315561120932017325e-01,-3.564123769886594073e-01,-1.066849145441308017e-01,-6.337101589755624043e-02,-8.879208025618215427e-02,9.479886335503924857e-03,7.514261904056460280e-03,7.713872600572338478e-02,-1.091411292714226065e-02,6.503124822771007285e-02,-6.323727018143784906e-02,-2.039418122815895296e-01,-1.977243990596885548e-01,-1.666739073317432540e-01,-7.390945922906775635e-03,2.628955618468125088e-01,2.806904467181843832e-01,-1.937907700916163267e-01,-2.425058440488103984e-01,-3.536869377328128450e-01,-1.734103923632830391e-01,-2.768693578012358381e-01,-1.849232062955817602e-01,-1.721854970146953490e-01,-1.773526851736634269e-02,5.142844434488384742e-02,8.269727182271387200e-02,-8.728957487221182532e-02,-6.935758537499267518e-02,-1.253280345139358085e-02,-2.097208552148158711e-01,-1.998578280296531839e-01,-2.670284147213834447e-01,5.933176675722734439e-02,3.302681674888903185e-01,4.058252252646430969e-01,3.313505243844834247e-01,-1.583712993458867013e-01,-5.622391910594475295e-01,-4.050114008369785634e-01,-1.766699463578411677e-01,-5.205500269090884008e-02,3.854539949488749312e-02,-1.773371808414851980e-01,-8.621520880368784001e-02,8.591523339770645862e-02,3.025688025012839791e-03,3.662157695496835730e-02,8.197391425926164876e-02,5.582099245157267492e-02,-2.393348118891308607e-01,-3.068116675842422203e-01,-1.374725615645771837e-01,1.093033149942081866e-01,5.484821761949006946e-01,4.054349464366126532e-01,3.002885098683766851e-01,4.331799883985554267e-02,-2.328057650803928569e-01,-3.956269601225825272e-01,-2.053154935737604436e-01,4.496713290089154186e-02,2.031059371700096386e-02,6.904605560896032168e-02,1.019738925390749756e-01,1.583792552789685670e-01,-4.332938647223042589e-02,2.598185504596582651e-02,7.117649730527197960e-03,2.167333641378930975e-02,-2.395789058934386928e-01,-2.874225949439997430e-01,5.447490038382400701e-02,2.748945547622727581e-01,4.268674120178124198e-01,3.923119610060148421e-01,1.088722686214509960e-01,-1.274327292075677909e-01,-7.309889473760555756e-02,-1.899531430071738081e-01,-7.074269701003610411e-03,4.242570685807054570e-02,9.380409916060040987e-02,-6.192953644424425974e-02,8.237167382724380760e-02,3.681894997389696667e-02,3.284492025599747983e-02,-6.470246488814629382e-02,-4.000840071147351851e-02,2.296348542282570723e-02,-1.220568180009185821e-01,-1.733392894123384487e-01,6.612026120834642307e-02,3.186902695492144222e-01,4.581197157923188601e-01,4.567110600966544642e-01,1.556794488991826431e-01,-5.746561222416447789e-02,-1.883032201260522176e-01,-1.462033510424716812e-02,5.089208725920869869e-02,1.111664156141674437e-01,-2.859145005893685976e-02,-1.712058037360151067e-02,8.122834257029051819e-02,2.196669553526045260e-01,-4.246398240597284296e-02,-2.900765599610967416e-02,7.912944501732403768e-02,-1.039853355575809934e-01,-3.142917428929656309e-01,-1.623198716503422012e-01,3.030433244949822247e-01,5.148549021446702234e-02,3.406808965576489934e-01,2.267370460142965338e-01,2.863245966327923608e-01,-6.276905122518436526e-03,2.089285745006521505e-02,1.020178130428018581e-01,2.598466041163720597e-01,2.156983484832533660e-01,-4.801786347093608964e-02,-2.464492149999471804e-01,-7.374921719835339506e-02,1.532083114917210664e-01,1.098541362309033154e-01,-4.672092244283550244e-02,-4.449046134727169255e-02,6.702819499206155718e-02,-3.185212662898164737e-01,-9.749793296240703844e-02,1.558185140771638777e-01,6.417678110004523817e-02,1.021331417093790800e-01,1.135243272087175792e-01,2.960860025978793719e-01,2.248754370125187474e-01,2.251090221207162345e-01,2.747910235635947496e-01,1.309544325824961719e-01,1.093450497077574912e-02,-9.103298119293812274e-02,-1.870803756717455135e-01,-3.772126092480250492e-02,8.033494103993535362e-02,6.401592172771335132e-02,-1.163048846289077287e-01,3.519675248815300889e-02,2.383874686827615608e-01,-1.108247852758999369e-01,-1.714917718033218685e-01,9.072650012034670641e-02,-2.691639066430215887e-01,-2.341414421620724995e-01,-1.158466069762530831e-01,5.423989540786294111e-02,2.217523860539786229e-01,-2.647730021746121792e-02,-1.643366459728734519e-01,-1.368188316947622496e-01,-2.584581779927416223e-01,-1.257420877342303456e-01,4.068178292624557296e-02,1.252156872716272962e-01,1.886115302521336468e-01,3.402812572275409203e-02,-4.089379725367557616e-02,1.280658051345507920e-01,6.762420797145186901e-02,4.124393542887575675e-02,-1.750903855931823794e-01,-2.879778994639603518e-02,-1.505185958108314348e-01,-4.075466131392548874e-01,-1.095233981294690406e-01,1.403669248673578285e-01,1.191824314934291779e-01,-8.571246162998794049e-02,-2.349731673225440853e-01,-1.903758801547369983e-01,-1.209630422664589033e-01,-1.204140784389759328e-01,-1.017250893999271100e-01,7.892278770652773334e-02,1.791443657699384184e-01,5.912848869458487561e-02,-1.045120959602045818e-01,3.565778716231125800e-02,1.316600084438681040e-01,1.351482344427096249e-01,-1.965807498960505263e-03,-2.408714592275172095e-01,-1.106456176325546908e-01,-4.403975452021167136e-01,-3.836429460636696098e-01,5.366236402260572691e-02,2.227374539397584952e-01,-1.668932558392061671e-01,-1.149123879059822245e-01,1.670171222929615201e-02,-7.535360557540156379e-02,-1.027780430434368369e-01,-1.517559323951088446e-01,6.299607155455951013e-02,1.109555834262046931e-01,9.898433819519417143e-02,-6.793392504378542585e-02,1.297215106835034326e-01,1.562002906296555693e-01,1.228922476753382259e-02,6.904097531073531691e-02,-8.372158210437864734e-02,-2.119633180143851436e-01,-3.535098835628046610e-01,-2.175097763314958188e-01,1.518227897815339900e-01,1.407090588990953517e-01,8.902872412396345414e-02,-6.478401391935827147e-02,-3.548636543723337339e-02,-1.095612095851082324e-01,-2.146411640823555345e-01,6.777804118618059592e-02,1.203934435442303441e-01,6.973050988800291727e-02,-4.667573145091610115e-02,-4.789632458054422087e-02,-9.514545089143618128e-02,2.560942891940306415e-02,2.219242349122829416e-01,6.065449254826998926e-02,1.089874005888928493e-01,-1.497172967109517694e-01,-3.694381591951477750e-01,-2.713294230701668308e-01,-1.001897145318366156e-01,9.306339387302042798e-02,-2.837924671984448297e-02,-1.974991742985578724e-01,-1.999202908601701578e-01,-2.459476440787163598e-01,-1.057778385772711743e-01,-5.969012864777899913e-02,3.457476939604005317e-02,1.496606160499014959e-01,3.328322539905405851e-03,-4.164626219537992391e-02,1.146113076002161675e-02,-9.606730919538073246e-03,1.593230104951858239e-01,4.394236720320045253e-02,2.095473874882523013e-01,1.274921892351056109e-02,-1.182765944356576615e-01,-3.117519494514311984e-01,-2.240204674200756974e-01,-1.170935464862056519e-01,-5.752060137710931359e-02,-1.339681659752317289e-01,-2.088110554551018960e-01,-9.577812099678863211e-02,-6.246931366419021699e-03,6.992219692462765812e-02,-3.578868600470644368e-02,-1.635379106971289118e-02,-4.844696635171633764e-02,7.574247706163680927e-02,1.663201194061525445e-02,-8.246944897940469352e-03,1.285337022387279537e-01,1.604896522324153474e-01,3.460626760039891558e-01,4.220636612214621053e-01,-5.763916424268841765e-02,1.775586065914413689e-02,-1.400888718910562880e-01,-1.416374658029375018e-02,-1.148278332684985609e-01,-1.174714093466312920e-01,-1.581219203593022538e-01,-5.124010801822780764e-02,6.140084560543920128e-02,8.903797256723366971e-02,1.118732146137673689e-01,2.924531921485380367e-02,3.000240048975132481e-02,8.752851729536648140e-02,-6.351307938142686238e-02,-8.302582084938299467e-02,4.671763303849708893e-02,1.106331952011567199e-01,5.084963780426748209e-02,1.491355563000512086e-01,-3.260164837613169914e-02,-1.388495000965160597e-02,-7.985002885309432086e-02,4.777076121777640814e-03,-4.860914197910205098e-02,-1.208659634839908542e-01,6.290188372753863222e-02,-4.546542878993841547e-02,-1.970258429219080148e-02,-8.559681505123702822e-03,6.506057304519610729e-02,5.609837440868552932e-02,-1.794881196009742372e-02,-8.718256507784154230e-02,5.222206381252952195e-02,-5.104795163740816211e-02,3.937967736825635084e-02,-5.056622667408726401e-02,-6.272158560030809127e-02,-4.862201658179668776e-03,2.400959531855544060e-02,8.147768885039453901e-02,3.063013449845228275e-02,-5.976136781422750066e-02,1.862514117220568158e-02,2.273299258362458924e-03,-2.708403307938180363e-02,5.056158733143364947e-02,-3.843287021722250479e-02,6.532654012480638983e-02,-2.115822024820941671e-02,-9.918955998435190213e-02,-1.975532573243152928e-02
-1.586832121743670942e-01,-4.514181430838112852e-02,9.431116966115637990e-02,-1.072709930378370480e-01,7.299052387055041113e-02,2.646562748676624475e-03,6.431497558816798299e-02,7.393789478351546311e-03,4.565468306123867184e-03,-1.098778187242442639e-01,-4.006938464658211900e-03,-7.557103596987799383e-03,-8.222277338143119682e-04,-1.092148291466038118e-01,4.176546957645373148e-02,-8.577083453158731996e-02,6.578166979591866526e-02,3.363366476802121668e-02,-7.373701211756322760e-02,1.933853084367746430e-02,-3.177233204125497548e-03,7.990398998447589482e-03,-3.353274756032763315e-02,2.381472423826159687e-02,2.536541510820566631e-04,-3.172650186358397240e-02,-7.139403178136184691e-02,4.071620666589124971e-02,-3.036069610521595265e-03,-1.012715940600831394e-01,-2.956364631030945767e-02,-1.135571752329880157e-04,6.690150404771239012e-02,1.777018492076154780e-03,-2.385848248037514621e-02,1.399265360187899182e-02,4.979078212074417725e-02,4.891406597076265739e-02,-6.428246223412552307e-02,-8.382310779764937103e-03,-5.775724220104451467e-02,-1.003705552395156020e-01,1.795136635484123134e-03,-3.070006110049651113e-02,2.700942769477355978e-03,2.797793791680710032e-02,1.527142907350418841e-02,-1.938839337222916792e-02,-5.656404127929154368e-02,-3.487377955733682311e-02,3.500117268022220202e-02,5.153532497105035165e-02,-1.190836938389352451e-01,1.509754754989876303e-02,1.396184878287509874e-02,-5.664647069902165738e-02,-3.231458303385911085e-02,6.011418388729332374e-02,1.396168442208744510e-02,-3.689344363941109671e-03,1.305844550862731573e-02,-5.933565211097296954e-02,-8.902217920056348932e-02,4.768555922560015897e-02,4.813756890901190258e-03,6.389188282931893004e-02,-7.747596277710357138e-02,-4.809835318523390107e-02,-8.201513358761376715e-02,3.657549630170470883e-02,5.480116478122040724e-02,-7.634931574874892490e-02,-2.865993429101893267e-02,-2.193115277172322797e-01,-1.749077296216777488e-01,-1.709859586541900289e-01,-6.174148908632401400e-02,-2.705571181448868448e-02,-8.388444160173798292e-02,9.286426163749095242e-02,-1.522322693887319216e-02,9.098540095698381958e-03,-2.771213866481457913e-02,2.652553458716317911e-02,4.077680457945432463e-02,2.738528680839055762e-02,-5.757448862371767478e-02,-2.283088390048786803e-02,-1.913832274015423926e-02,-4.677611432297520966e-02,5.238543147209747536e-02,-7.554993549621077942e-02,-2.613276904416226079e-02,-1.947512256418580667e-01,-2.747788841972624851e-01,-3.969578466969009289e-01,-1.174968634171917603e-01,-1.373664564372572283e-01,-9.676017943153190914e-02,8.347349199232325517e-03,-5.019246170671002281e-03,-2.546446346157864651e-02,6.386208433149809238e-02,8.648124570933474198e-02,2.878203479131218392e-02,-7.629898377459079506e-02,-2.055243558611386523e-01,-7.487027282930892869e-02,3.678693563996358190e-02,-8.464466596956427002e-02,6.821187510202549736e-03,-5.370453011592689341e-02,-7.157629884683751331e-02,-1.184898072920656797e-01,-2.796380722657363371e-01,-3.178858978990536377e-01,-1.493575363689964575e-01,5.592067598460057076e-02,-5.706404958036745412e-02,3.201451826952453339e-02,1.069340236356936535e-01,-5.603207371428314126e-02,5.369668858192205158e-02,6.384986797947414527e-02,-7.812759038405867051e-02,-1.352114395450517148e-01,-1.570249266870982485e-01,1.940110061823364235e-02,1.374229283150502634e-01,-1.690823991557297706e-02,-9.238230075100743732e-02,-5.551988130326489940e-02,1.076134000123973589e-01,1.706251811469368940e-01,7.377396698594551605e-02,-2.650541721352528564e-04,-6.675653864658305514e-02,-1.462883497485689688e-02,-6.723188423699714977e-02,-1.804211335142979003e-02,-6.898817483931173056e-02,4.791042142429118716e-02,-3.653236843804467948e-02,1.110012862952283602e-01,-7.524568199622423681e-02,-1.664462413072468339e-01,-3.142923709676905819e-01,-5.159767400152973776e-02,-6.570553781361840318e-02,-1.669536372207784947e-01,-2.634859741752995088e-01,-2.380552993103071946e-01,-3.172423828635675264e-02,3.977491536332281030e-01,5.015836607683753501e-01,2.315604266501488095e-01,9.231257229515125312e-03,-2.252018605099418425e-01,-2.705630695609997569e-02,-2.761181793106795915e-02,1.302541531983247292e-01,3.663040674659759355e-02,-7.349377712887106805e-03,1.076575205335663504e-01,4.306269906249556023e-03,-2.685181546692860244e-01,-1.545527270335639580e-01,-6.126025340765671456e-02,-1.396153982034616658e-01,-1.027025453490974238e-01,-3.075222463059214539e-01,-3.480904206578966376e-01,-8.732688696274103213e-02,2.779264997203351184e-01,4.235293831441549472e-01,5.095635265238951384e-01,-4.949371478724944387e-03,-3.224784702317102791e-01,-1.297573207500950232e-01,4.920290244670130070e-02,3.939715322602527041e-03,1.229985893520502008e-03,6.909566630691216238e-02,9.065368927236075111e-03,-4.777749340203266137e-02,-7.102118708310170558e-02,-7.167836006783888381e-02,-2.191782736395339864e-03,6.000095775013455229e-02,-9.718880081730102774e-03,2.792304271373967361e-02,3.120567953924076668e-02,2.829145956372150494e-01,2.324151324018530751e-01,2.493301963764200380e-01,2.660457765825748888e-01,1.067307639636191491e-01,-2.834523977039706821e-01,-1.557434761501449716e-01,-1.035748700023258889e-01,7.084734835701683719e-02,1.215239626640969242e-04,8.543298535260811233e-02,1.192871161603391850e-01,1.401502683959151840e-01,-1.298819139727400707e-01,-1.254538578324220222e-01,1.522271348271996283e-01,1.193021091482693447e-01,4.144328961915223070e-02,3.599902183755104290e-01,4.569893852350406238e-01,3.206375496278471293e-01,1.702650672856119152e-01,1.463250255593467331e-01,3.317847943854226322e-01,2.484201647086733619e-02,-1.619211333564476163e-01,-2.601590982799105167e-01,-1.072102506577514089e-02,-8.105307665320811428e-02,7.731020515053814435e-02,4.044111562756391720e-02,2.681318635183270738e-01,4.838131915806227756e-02,-1.911212854481674495e-01,-2.574035523379872847e-01,-2.636158529609580747e-01,-9.324489732311123935e-02,-7.317003605965435864e-02,1.343005002992707642e-01,7.070405844386894179e-02,-1.132293299422831301e-01,-3.213429003230538483e-01,-7.461739046083931681e-02,2.580837362981116545e-01,-3.708441237899925275e-03,-1.615863838545693321e-01,-2.391983001440183693e-02,-9.412082926034051611e-02,9.698995164262587398e-02,8.875233098044560398e-02,1.882291720712742089e-01,3.898232407059394333e-01,7.186075082109351364e-02,-6.998106024958315741e-02,-2.890641514434375003e-01,-3.516618574840675859e-01,-2.820861740453030064e-01,-1.925002793011296454e-01,-1.240774584198726799e-01,-2.417945136369837045e-01,-2.829601706642704828e-01,-2.661271713726522381e-01,-5.789869213573004339e-03,-1.327763760827591066e-02,-1.185045407758363555e-02,-2.619144180861016427e-02,1.259460079800995462e-03,8.653915497064217782e-03,4.724172851265557443e-02,-2.649202146753268372e-02,3.616309585577021785e-02,3.263009327477316424e-01,3.487068808310510026e-01,-3.693550076596167908e-02,-3.000656595088942447e-01,-3.928837677465255585e-01,-3.776181544992799899e-01,-5.625865943185522078e-02,4.470281033223614392e-03,-1.214793289527909409e-01,-2.859622130583981403e-01,-6.700172965784197132e-02,1.242183351025575866e-01,5.207704452342917789e-02,-5.351853043551967060e-02,-2.095667650182145847e-01,-4.932864411898617990e-03,8.745240316233388045e-02,-1.176249443663223912e-02,8.400024792376493965e-02,-3.541918054072018540e-02,2.621641615098212474e-01,1.115743976795035286e-01,-3.923418070242502831e-02,-2.909948617793857162e-01,-5.049802371676936907e-01,-2.943966785096391869e-01,-6.725524590229052524e-02,4.638019837908667620e-02,9.858665071146490572e-03,3.841614874721405865e-02,-3.744473870219076819e-03,3.973526930485027364e-02,-3.623532965734080347e-02,-1.208585352388800299e-01,-1.841762042584234316e-01,-1.391786141179239544e-01,-1.688063915035174431e-02,8.695341035975874544e-02,9.142812098052115199e-02,-1.997212463178947572e-02,9.442487354733714033e-02,7.670015416294725941e-02,-1.238959042352137108e-01,-2.432540701768476921e-01,-4.238198958543246131e-01,-1.514906850689429207e-01,-8.538143823374133579e-02,1.367918764178477908e-01,1.187010102478218837e-01,1.093003318054223266e-01,-4.858781988168547894e-02,-1.112511438856486484e-01,-1.737461726416379970e-01,-1.167699818165798126e-01,2.169312983303372383e-02,-6.502787352057995407e-02,-6.152231195485816789e-02,-5.180514508266132606e-02,7.704080136577932947e-02,3.788441065799458274e-02,5.942884156115387645e-02,-4.400792127072947202e-02,-3.176809114283388885e-02,-1.889261969278222542e-01,-2.317169899953561707e-01,-6.182876771808187150e-02,9.539793276778149589e-02,1.648184949053305703e-01,1.851420839063451507e-01,9.095319834593367653e-03,-1.088425036030024884e-01,-6.951656806650727272e-02,1.539405384731747616e-02,-6.881619583588978462e-02,-1.245806373386116467e-01,1.489568949817243054e-02,-2.744829278118397081e-02,9.372193271005596626e-02,5.900099166573888332e-02,6.904421446834668741e-02,-4.591598341904186420e-02,-1.001706622292403842e-02,-1.029761926259528948e-01,-2.770787455392522691e-01,-1.730381731810899659e-01,-7.982399828684175191e-02,-7.188807832720089941e-02,1.628731274614958827e-02,8.491336460328612057e-02,-2.898478314983346862e-02,2.299982344624059219e-02,-8.022184852622222737e-03,-8.851524847938085916e-02,-7.424775287098721310e-02,-1.832341319508063934e-02,9.362970347620007405e-02,3.175098073433176016e-02,-6.150035608457542907e-02,5.817147906856834361e-02,-9.461902403182644028e-02,-3.026746225063690551e-02,-7.421809084073186479e-03,-9.067375508133627970e-02,-1.662203828094488134e-01,9.487369594738139650e-03,5.682109177300376929e-02,-6.529149193761572476e-03,7.003419062827630215e-02,8.294597053759870942e-02,8.298613057706524798e-02,1.168313479043475364e-02,6.617960098602969354e-02,-4.404068533911968675e-02,1.121489638981320869e-01,4.173527732062261991e-02,7.691708651685276454e-02,-1.055604046334149004e-01,-1.479249793001404141e-02,-1.768556322294665209e-02,-3.643151168994605837e-02,8.205595940749165623e-03,-4.676143603821899392e-02,2.235316716395872177e-02,3.704169727103532456e-02,-8.598140528976308539e-02,-8.542088998032328073e-02,-7.036538268262640394e-02,5.899248280418484258e-02,-9.428704291418636696e-02,-6.088959962405407489e-02,-2.637260753241035122e-02,-1.212702343210707648e-02,-1.097082265189140184e-02,8.423206893920268459e-03,-8.539086869899027363e-03,-6.115794715845165180e-03,4.571427603920288907e-02,1.049037901322609351e-01
1.813502963362226550e-01,-1.128005495185848903e-02,-7.234805540533820190e-02,4.131938648037070116e-03,-5.173279763125595426e-02,5.427625616331580027e-02,-9.824186363962823798e-02,7.029114148652330918e-02,3.773850669392206370e-02,1.019050059545803522e-01,-2.274113358534177523e-02,-1.059435866293565037e-01,7.597239077753271952e-02,9.815025692603952800e-02,-9.609626180517455429e-02,8.098785234376276038e-03,-3.517214809101483486e-02,9.021081991604380790e-02,5.647206235937889118e-02,-4.135748765767289364e-02,-1.104149136000764642e-01,1.737398184294640380e-02,-2.924128120662238331e-02,-3.047502865113347389e-03,8.046161958946991544e-02,6.508406859977533543e-02,-3.147651607442128463e-02,-6.854638810607635580e-02,6.707265787981193939e-02,-6.490244790643752426e-02,8.738896990152213162e-02,4.174133234485083443e-02,4.659029785021307629e-02,-4.269665109805938913e-02,-4.337040308245516257e-02,1.998058981111711443e-02,-3.054105128342528633e-02,-1.074473160497486229e-01,6.956681491492264224e-02,-1.091595264493459144e-01,1.750374204625570335e-02,-5.304283909008326858e-03,-2.880938512732115868e-03,-1.008245412215935388e-01,-2.404967630877054632e-02,-7.837707010428114629e-02,-7.928459321822937944e-02,2.250380955557201856e-02,-1.374226758091424798e-02,8.737854344347556479e-02,-6.350864688986712636e-02,-7.281167601379279208e-02,-7.985858323929445612e-02,-3.255133525852915016e-02,7.880327275407429666e-02,2.532809454678848493e-02,1.752016623193035708e-02,-3.787834948363125870e-02,4.590929906410509687e-02,-2.144312564094060999e-02,-1.069914403127428387e-01,-9.175640638584123265e-02,-6.489102305180172170e-02,6.743842919264193825e-02,-7.505518647037087709e-02,8.225008332068994843e-02,5.199827132086032311e-02,6.052714718950837069e-02,-1.393168412674220154e-02,3.529157996404106573e-02,1.367278363402876229e-01,6.515065833632704972e-02,2.818146990756333070e-02,-1.189979395148827029e-01,-1.133331049643239996e-01,-1.801378357321923585e-01,-2.252642540773912988e-02,2.465680598015397920e-02,-4.262439000000145528e-03,3.933823587174878345e-02,1.123277370812110904e-01,7.632903298448237561e-02,8.443361424806740401e-02,9.682442236043534156e-02,7.981463007926617448e-02,3.281147298785753313e-02,6.511926539320693486e-02,-6.578640283834172320e-02,-2.837815914297181497e-02,1.381073825601573379e-01,1.195558365362832803e-01,6.365898141893105988e-02,1.284255839675061718e-02,-1.388065931117431762e-01,-3.004854752196022827e-01,-3.298574228527282326e-01,-2.286009869762468949e-01,3.976387654724467674e-02,3.193438678026757835e-03,2.812336904420965553e-03,-3.119544520736576565e-02,8.479304104190191205e-02,9.189300827333812816e-02,-2.454372566865795774e-02,-9.566561132006670687e-02,4.462584687085396906e-02,3.935764765380530411e-02,-5.464170359015631945e-02,-8.454322573719662065e-04,2.295832842481248526e-01,1.843828422082889329e-01,2.438851999722653763e-01,8.619276380949005001e-02,-2.143199396293282988e-01,-5.210020327100753912e-01,-5.666311478670733592e-01,-2.264312484285015969e-01,1.585669039916848266e-02,1.954345260176619959e-03,9.060679574299682071e-02,8.288810366574304866e-02,9.139512738674911152e-02,-1.002898800896055154e-01,-9.307735085392203345e-02,-4.157655043977836334e-02,-1.010522839553448793e-02,-1.438161103373047089e-01,-1.544985156801717552e-01,1.184782253759672083e-01,2.571887072881489100e-01,1.693980532825486440e-01,-7.205351933261507080e-02,5.844216763664486503e-02,-1.363700680392151421e-01,-6.066562251971200359e-01,-5.428932690479174594e-01,-2.507737999232690362e-01,2.400931213446253626e-02,-1.636376010484678206e-02,1.059670633721050137e-01,2.163643994097910403e-02,2.466158898963050419e-02,1.945435983537368869e-03,3.208626291394326563e-02,-8.480550622607758993e-02,-1.190689402005273567e-01,-1.783480569604025123e-01,-4.266957074539386163e-02,-5.824483907296527235e-02,1.202484571619281684e-01,-8.553551085697359835e-02,-3.378763922992208957e-01,-3.029496070723557422e-01,-1.419748127257039749e-01,-3.078460141413809636e-01,-5.255342233247287664e-01,-2.073718763817763155e-01,7.792688943395946304e-03,1.056166268065564795e-01,6.542294946082172213e-02,2.499855469948204789e-02,-4.352628387523100467e-02,2.682621224509581549e-03,-1.517023303922312993e-01,-3.616701618032166360e-02,-3.338006409243804984e-01,-3.260045956243859400e-01,-6.474058318327623185e-02,4.684433566155569301e-02,-1.454950931275336423e-01,-3.400711242468464901e-01,-4.460609408930379938e-01,-1.622438422689282400e-01,5.480810632678594779e-02,-2.655433612812591049e-01,-2.994611578624530313e-01,-2.476905545634579819e-01,-2.061086963790329796e-01,-6.491011991105752332e-02,1.115438528709088717e-01,-6.564907349943424619e-02,1.949647463755148011e-02,8.136138161512945777e-02,-6.414185700626975906e-02,-2.494865529495213508e-01,-1.545818180299615430e-01,-1.494997156498385771e-01,-8.706688310909432502e-03,-7.143317085087801110e-02,-1.688730664666791836e-01,-5.253160166606766351e-02,5.376411630002583299e-03,1.148889795585448514e-01,3.303810832100482764e-01,-8.026112084903060107e-02,-3.306554162963028509e-01,-2.778367534289692409e-01,-1.019715191467190502e-01,-4.236384214013386856e-02,-2.352497704461638944e-02,6.200801523998763359e-02,6.937180192563618952e-02,-5.366459378237180278e-02,-2.265573576216778073e-01,-3.065165642303560034e-01,-3.697831879276404221e-01,-8.601909579083186208e-02,-1.111940494423846737e-01,1.086729991542481621e-01,3.551808687626237804e-01,4.319903227165901027e-01,3.169977479578600654e-01,2.395617952999188893e-01,4.403403464122723210e-01,1.223304862180117358e-01,-7.447384335747639361e-02,-9.935116051205497567e-02,-1.328755162275466976e-03,-5.000451367638633626e-02,-8.660990918917720049e-03,-5.795987211632150360e-02,3.658400196218153377e-02,-1.231340700322460929e-01,-2.312729143457929737e-01,-2.119791041662572872e-01,-3.293227492444342763e-01,-1.071664813304134128e-01,1.378439147355250138e-01,2.679891956958440069e-01,5.104427920477939695e-01,3.401618184217812257e-01,2.771046805783006772e-01,1.544712462063866920e-01,9.673706865251877063e-02,-2.289858423715694924e-01,-9.773639034166343997e-02,-1.785790486731579640e-01,6.310321965316867399e-02,-2.948222254798164854e-02,4.649969733342532163e-02,1.143264946867148663e-01,1.127619182119728725e-01,-1.057461519094506919e-01,-1.093693525400982330e-01,-3.372326950943533852e-01,-2.899307353580428126e-01,-2.820152403830831003e-03,8.886341240740909531e-02,3.744063568853998047e-01,3.816467113119773602e-01,2.569042705341644806e-01,4.119971257526468533e-01,3.841562233520333658e-01,-4.409410451438017936e-02,-2.532343076588904340e-01,-1.982461847190991611e-01,-2.795958487079774346e-01,-3.839141626866229146e-02,-3.976242373656307255e-02,5.089718392048857981e-02,1.196496787553607694e-01,-4.070075096397956366e-02,-1.044229884224293914e-01,-5.236140796504939326e-02,-4.188314163606896012e-02,-1.516598699628477487e-01,2.760926294390788488e-02,1.294626398419984059e-01,1.524692221300458506e-01,3.297344064325163360e-01,3.041988376897280522e-01,3.603817111901786996e-01,2.791025837121029474e-01,-9.783932979948806175e-02,-3.797652237314225743e-01,-3.427394357426101212e-01,-3.269931903700324383e-01,-4.153302184718922485e-02,-7.001299169710728520e-02,-1.513599676437732411e-02,8.220304261826874570e-02,-3.899966331986345208e-02,1.003272543667182159e-01,-6.103085787573898219e-02,-4.279229094674638634e-02,1.275352128003530983e-01,3.251211714159955163e-02,-7.275597804574431005e-02,1.587727882530928503e-01,2.471477418034283002e-01,1.682948004047522816e-01,1.568931152065283496e-01,-4.395915955520329071e-02,-2.154079187287648023e-01,-3.042696364312006407e-01,-3.164464567590446475e-01,-2.440750017066323774e-01,-8.139407772034497335e-02,-7.005018254474003336e-02,2.760303576457551894e-02,-2.681083577109868478e-03,-8.946050037203102934e-02,-7.601963853818667627e-02,-6.319941510961063491e-02,-5.946875015632321210e-02,4.564679554869299077e-02,-2.091461448653387789e-01,-1.159110441496860044e-01,-1.967088830443643188e-02,1.174839609471561852e-01,-2.962740842057557961e-03,1.285020480028018774e-01,-2.056324054331568618e-01,-3.676765044942796878e-01,-3.260373300013255649e-01,-1.978139092564054624e-01,-1.670438825652119375e-01,3.025538026805483539e-03,-3.359424877163726814e-02,3.018087132955120377e-02,-5.902422992655993045e-02,3.225895323252638003e-02,-8.935451597540916557e-02,-8.718407926811934383e-02,-6.734795825512479572e-02,4.572059876430682734e-02,-2.356443762904989192e-01,-3.155748826767603710e-01,-4.870837452167104537e-02,3.016893512809984412e-02,-4.356854957774260184e-02,2.749137531060927460e-03,-2.938156697333606585e-02,-3.331736585932268402e-01,-1.820140341556163999e-01,-2.363752490705905152e-01,-1.089384575279455682e-02,-9.614507739670077879e-02,-8.451753687847277097e-02,8.609235752261165664e-02,-3.490276548585607291e-02,-7.166962651142992635e-02,-1.082368541695167136e-01,3.879949906834541384e-02,1.523625795372327528e-02,-7.312618827606741367e-02,-3.194135367901101419e-01,-1.871305988569729184e-01,-2.113948862413667085e-01,-2.879697102734084940e-02,1.741789524074804571e-02,-1.226739664139544495e-01,-9.039083955737087228e-02,-1.563988208843146155e-01,-1.756076133654196902e-01,-1.099669119240235735e-02,-1.055884585097910527e-01,3.278700268800517625e-02,-1.052747767242617066e-01,2.345674142616430841e-02,-4.494930611036802165e-02,3.253507370456525105e-02,-2.032377415847651941e-02,5.037626214780062395e-02,-1.657878791995788872e-02,-2.505334119843407453e-03,-1.184198174576032297e-01,-8.954754525981957480e-02,-2.307672842565769433e-02,-6.097135712773787096e-03,-8.094333959315636040e-02,-9.057932610312929844e-03,8.482182754961456461e-02,-3.385090060402078799e-02,4.243374359895890624e-02,1.106779391195788914e-01,9.834590807927849621e-02,3.208065469718188178e-02,4.248718239561689869e-02,-1.003256382055987411e-01,2.131914195927633437e-03,-4.847625547356427395e-02,-6.398623497468227186e-03,-3.324174675477413465e-02,3.724078909586407693e-02,-7.988894551328679094e-02,-6.170647125226460389e-02,-5.381598776489267266e-02,1.406461614387346029e-02,1.029338725445570930e-02,1.017030575050039201e-02,-1.090549797317894448e-01,1.030533566325847195e-01,-6.282008829203857003e-02,-3.302636189737727119e-03,-7.074139576929408535e-02,-5.546603223685781653e-02,5.831182568043367237e-02,-3.774416501672201579e-02,9.229492159643814392e-03,7.156385218514123292e-02
